{"learner":{"attributes":{"best_iteration":"46","best_ntree_limit":"47","best_score":"0.9784417535789734","scikit_learn":"{\"use_label_encoder\": null, \"n_estimators\": 100, \"objective\": \"binary:logistic\", \"max_depth\": null, \"max_leaves\": null, \"max_bin\": null, \"grow_policy\": null, \"learning_rate\": null, \"verbosity\": null, \"booster\": null, \"tree_method\": null, \"gamma\": null, \"min_child_weight\": null, \"max_delta_step\": null, \"subsample\": null, \"sampling_method\": null, \"colsample_bytree\": null, \"colsample_bylevel\": null, \"colsample_bynode\": null, \"reg_alpha\": null, \"reg_lambda\": null, \"scale_pos_weight\": null, \"base_score\": null, \"missing\": NaN, \"num_parallel_tree\": null, \"random_state\": 42, \"n_jobs\": null, \"monotone_constraints\": null, \"interaction_constraints\": null, \"importance_type\": null, \"gpu_id\": null, \"validate_parameters\": null, \"predictor\": null, \"enable_categorical\": false, \"feature_types\": null, \"max_cat_to_onehot\": null, \"max_cat_threshold\": null, \"eval_metric\": null, \"early_stopping_rounds\": 20, \"callbacks\": null, \"classes_\": [0, 1], \"n_classes_\": 2, \"evals_result_\": {\"validation_0\": {\"auc\": [0.9683588330294546, 0.9712853474410097, 0.9808687756860652, 0.9841246172099976, 0.9859944852758948, 0.9872811951916285, 0.9887507952244153, 0.9904367538880221, 0.9922446277225526, 0.9933714292403613, 0.9944302939464233, 0.9951760682830586, 0.9958255075604562, 0.9960458344118708, 0.9963710782000476, 0.9965964187172044, 0.9966883056403998, 0.9968218229694156, 0.9969479066031572, 0.997092364006714, 0.9973840898151115, 0.9974456840376662, 0.9982000768757007, 0.9982409847923585, 0.9984367094371024, 0.9985166079868009, 0.998523014786682, 0.9985454923329912, 0.9986183909662938, 0.9987217563825503, 0.9987816777977419, 0.9988100165908911, 0.9988306900546502, 0.9989149406621743, 0.9989733452781958, 0.9990662419739338, 0.999133823962168, 0.9991822312116934, 0.9992136687651414, 0.9992461156154973, 0.9992641174389496, 0.9992743169502081, 0.9993076950933751, 0.9993755534253905, 0.9994118586247172, 0.9994382639626683, 0.9994645009259233, 0.9994888943289453, 0.9995303963133871, 0.9995448603656801, 0.999582428850863, 0.9996118868125439, 0.9996246309696348, 0.9996307894881843, 0.9996504322514725, 0.9996621889908536, 0.999682414882327, 0.9996868934589923, 0.9997017722647742, 0.9997100644807452, 0.999719934852767, 0.9997262427206233, 0.9997306328292278, 0.9997350714525753, 0.9997416875317399, 0.9997530323714404, 0.9997555503817277]}, \"validation_1\": {\"auc\": [0.9376036933702341, 0.9359339354057394, 0.9524880638433563, 0.9576557845489065, 0.960589819625582, 0.9609194081794616, 0.96775553042549, 0.967570007591478, 0.9675537230092229, 0.9690216061109524, 0.9716249959719453, 0.9726401257202724, 0.9736469445612268, 0.9751845748360113, 0.9749299043533717, 0.9767499106333901, 0.9765997747286964, 0.9760137545891722, 0.9765725638137548, 0.9768135876216192, 0.9770976497893046, 0.9779457969965325, 0.9778866389236738, 0.9780492749126756, 0.9779248061475235, 0.97715332312643, 0.977401136548433, 0.9774288495650825, 0.9778554411712909, 0.976509531314285, 0.9760228973366877, 0.976183719764297, 0.9758151920988676, 0.9755732090519196, 0.9756653709444982, 0.9763934184208377, 0.9759390388574264, 0.9764165900399508, 0.9771532556799319, 0.9773082477324863, 0.9775113216441058, 0.9777841202466143, 0.9779731952628578, 0.9783476507260616, 0.9783561864550945, 0.9780937146608453, 0.9784417535789734, 0.9778309281162718, 0.9778511620656913, 0.9775901291300676, 0.9775008599428503, 0.9774212281108011, 0.977395658393979, 0.977340741956443, 0.9772308641170392, 0.9774017435669156, 0.9775690858226712, 0.9775860073996302, 0.9771933563700594, 0.9768750313813568, 0.976212017317263, 0.9761630736418336, 0.9758871874885248, 0.9757177918616058, 0.9759015311104466, 0.9756312055462005, 0.9756858072334121]}}, \"_estimator_type\": \"classifier\"}"},"feature_names":["drift_time","s2_range_50p_area","s2_area","s2_x","s2_y"],"feature_types":["float","float","float","float","float"],"gradient_booster":{"model":{"gbtree_model_param":{"num_parallel_tree":"1","num_trees":"67","size_leaf_vector":"0"},"tree_info":[0,0,0,0,0,0,0,0,0,0,0,0,0,0,0,0,0,0,0,0,0,0,0,0,0,0,0,0,0,0,0,0,0,0,0,0,0,0,0,0,0,0,0,0,0,0,0,0,0,0,0,0,0,0,0,0,0,0,0,0,0,0,0,0,0,0,0],"trees":[{"base_weights":[-6.9517946E-1,1.4873729E0,-1.4344999E0,1.9603508E0,7.790134E-1,9.6594685E-1,-1.6811235E0,1.972814E0,1.7554859E0,1.6136845E0,3.6069985E-2,1.6994634E0,3.2972136E-1,-7.2456366E-1,-1.787561E0,-1E0,1.7791798E0,1.7268975E0,-6.835443E-1,1.3564993E0,-9.117783E-1,1.9611069E0,1.3045404E0,1.2293578E0,-9.6421844E-1,2.3172906E-1,-1.2567075E0,4.5813587E-1,-1.8216187E0,1.9384615E0,1.3442622E0,1.9006662E0,1.5312916E0,1.5555556E0,-1.5213675E0,-1.84E0,1.4588859E0,-2.7504244E-1,-1.6649848E0,1.6015326E0,-6.1290324E-1,1.6080402E0,8.119891E-1,1.0909091E0,-1.1451943E0,9.3333334E-1,-2.916236E-1,1.1449275E0,-1.4961777E0,-8.9096576E-1,1.8227848E0,-1.4988135E0,-1.9310924E0,1.6428572E0,-1.5789474E0,1.912462E0,-8E-1,-1.3333334E0,1.5502008E0,1.7714286E0,5.714286E-1,3.3333334E-1,-1.9175258E0,1.6015444E0,5.8064514E-1,1.6410257E0,-5.6530213E-1,7.4074075E-2,-1.8118162E0,1.7123098E0,2.5E-1,5.2307695E-1,-1.7460318E0,1.6354431E0,-1.2E0,1.1499176E0,-7.7862597E-1,1.3580247E0,-1.2727273E0,-1.255113E0,8.679245E-1,1.7094017E0,5.5510205E-1,-3.567182E-2,-1.9384615E0,1.693617E0,-1.8222222E0,-8.955224E-2,-1.6047059E0,1.3877552E0,-1.8590308E0,7.4285716E-1,1.9298246E0,5.3435117E-1,-1.5500633E0,-1.9390981E0,1.880597E0],"categories":[],"categories_nodes":[],"categories_segments":[],"categories_sizes":[],"default_left":[1,1,1,1,1,1,1,0,1,1,1,1,1,1,1,0,1,1,1,1,1,0,1,1,1,1,1,1,1,0,1,1,1,1,1,0,1,1,1,1,1,1,1,1,1,1,1,1,1,1,1,1,1,0,0,0,0,0,0,0,0,0,0,0,0,0,0,0,0,0,0,0,0,0,0,0,0,0,0,0,0,0,0,0,0,0,0,0,0,0,0,0,0,0,0,0,0],"id":0,"left_children":[1,3,5,7,9,11,13,-1,15,17,19,21,23,25,27,-1,29,31,33,35,37,-1,39,41,43,45,47,49,51,-1,53,55,57,59,61,-1,63,65,67,69,71,73,75,77,79,81,83,85,87,89,91,93,95,-1,-1,-1,-1,-1,-1,-1,-1,-1,-1,-1,-1,-1,-1,-1,-1,-1,-1,-1,-1,-1,-1,-1,-1,-1,-1,-1,-1,-1,-1,-1,-1,-1,-1,-1,-1,-1,-1,-1,-1,-1,-1,-1,-1],"loss_changes":[2.7902178E4,1.4644336E3,7.6479844E3,3.234375E0,1.0873105E3,5.6132446E2,1.1912539E3,0E0,1.2192657E1,2.1593823E2,1.1636294E3,5.5202637E1,7.5317804E2,5.9797705E2,8.069258E2,0E0,8.374207E0,2.3848389E1,7.646738E1,1.2983209E2,2.5912213E2,0E0,1.2953848E2,5.899048E1,9.999629E1,1.5476588E2,4.3578467E2,2.929702E2,3.64E2,0E0,4.2527107E1,1.4678711E1,2.2406921E1,1.377779E0,2.213076E1,0E0,4.6303833E1,1.64716E2,6.339673E1,2.8879425E1,4.0816868E1,1.7275208E1,9.952922E1,1.5618406E1,5.51922E1,5.18871E1,1.01831154E2,1.1542118E2,1.0469458E2,1.7960736E2,7.698456E0,2.7526318E2,2.40125E2,0E0,0E0,0E0,0E0,0E0,0E0,0E0,0E0,0E0,0E0,0E0,0E0,0E0,0E0,0E0,0E0,0E0,0E0,0E0,0E0,0E0,0E0,0E0,0E0,0E0,0E0,0E0,0E0,0E0,0E0,0E0,0E0,0E0,0E0,0E0,0E0,0E0,0E0,0E0,0E0,0E0,0E0,0E0,0E0],"parents":[2147483647,0,0,1,1,2,2,3,3,4,4,5,5,6,6,8,8,9,9,10,10,11,11,12,12,13,13,14,14,16,16,17,17,18,18,19,19,20,20,22,22,23,23,24,24,25,25,26,26,27,27,28,28,30,30,31,31,32,32,33,33,34,34,36,36,37,37,38,38,39,39,40,40,41,41,42,42,43,43,44,44,45,45,46,46,47,47,48,48,49,49,50,50,51,51,52,52],"right_children":[2,4,6,8,10,12,14,-1,16,18,20,22,24,26,28,-1,30,32,34,36,38,-1,40,42,44,46,48,50,52,-1,54,56,58,60,62,-1,64,66,68,70,72,74,76,78,80,82,84,86,88,90,92,94,96,-1,-1,-1,-1,-1,-1,-1,-1,-1,-1,-1,-1,-1,-1,-1,-1,-1,-1,-1,-1,-1,-1,-1,-1,-1,-1,-1,-1,-1,-1,-1,-1,-1,-1,-1,-1,-1,-1,-1,-1,-1,-1,-1,-1],"split_conditions":[1.3510689E1,2.634284E3,2.1997632E3,2.2272827E3,-1.6814255E1,3.625248E0,-5.407421E0,5.918442E-1,2.282854E3,1.4273453E4,2.1912575E0,2.0064468E2,3.9632484E1,2.7028973E2,1.6016382E2,-3E-1,-1.3087937E1,6.558853E0,2.102061E2,4.834546E3,3.096048E2,5.883321E-1,6.96812E5,1.9991055E2,3.551295E5,2.1533105E2,2.815435E3,1.7482898E4,3.699393E1,5.815385E-1,2.834494E2,1.3092449E4,3.1056309E3,1.8612677E2,1.5354541E4,-5.5200005E-1,4.625918E2,2.867399E3,5.626196E0,1.955406E3,4.2071533E1,2.1524924E3,8.01245E5,1.9570286E3,1.699069E6,1.8815897E2,1.2222152E4,-2.0103521E1,-3.6556686E1,1.5060844E2,4.2602448E1,2.4649312E3,3.83748E1,4.928572E-1,-4.7368425E-1,5.7373863E-1,-2.4000001E-1,-4.0000004E-1,4.6506026E-1,5.314286E-1,1.7142859E-1,1.0000001E-1,-5.752578E-1,4.8046333E-1,1.7419355E-1,4.9230772E-1,-1.6959065E-1,2.2222223E-2,-5.435449E-1,5.13693E-1,7.5E-2,1.5692309E-1,-5.2380955E-1,4.9063295E-1,-3.6E-1,3.449753E-1,-2.335878E-1,4.0740743E-1,-3.818182E-1,-3.7653393E-1,2.6037738E-1,5.1282054E-1,1.6653062E-1,-1.0701546E-2,-5.815385E-1,5.0808513E-1,-5.466667E-1,-2.6865672E-2,-4.8141178E-1,4.1632655E-1,-5.577093E-1,2.2285716E-1,5.789474E-1,1.6030535E-1,-4.65019E-1,-5.817295E-1,5.641791E-1],"split_indices":[3,1,1,1,3,4,4,0,1,1,4,2,3,2,2,0,3,4,2,1,2,0,0,2,0,2,1,1,3,0,2,1,1,2,1,0,2,1,4,1,3,1,0,1,0,2,1,4,4,2,3,1,4,0,0,0,0,0,0,0,0,0,0,0,0,0,0,0,0,0,0,0,0,0,0,0,0,0,0,0,0,0,0,0,0,0,0,0,0,0,0,0,0,0,0,0,0],"split_type":[0,0,0,0,0,0,0,0,0,0,0,0,0,0,0,0,0,0,0,0,0,0,0,0,0,0,0,0,0,0,0,0,0,0,0,0,0,0,0,0,0,0,0,0,0,0,0,0,0,0,0,0,0,0,0,0,0,0,0,0,0,0,0,0,0,0,0,0,0,0,0,0,0,0,0,0,0,0,0,0,0,0,0,0,0,0,0,0,0,0,0,0,0,0,0,0,0],"sum_hessian":[1.72895E4,4.3745E3,1.2915E4,2.622E3,1.7525E3,1.203E3,1.1712E4,2.4635E3,1.585E2,8.2475E2,9.2775E2,5.58E2,6.45E2,1.1735E3,1.05385E4,1E0,1.575E2,7.8625E2,3.85E1,3.875E2,5.4025E2,3.3325E2,2.2475E2,3.805E2,2.645E2,4.1975E2,7.5375E2,1.5725E2,1.038125E4,1.1275E2,4.475E1,4.1175E2,3.745E2,1.025E1,2.825E1,1.15E1,3.76E2,2.935E2,2.4675E2,1.9475E2,3E1,1.98E2,1.825E2,2.1E1,2.435E2,1.79E2,2.4075E2,6.8E1,6.8575E2,7.925E1,7.8E1,2.63275E3,7.7485E3,4.1E1,3.75E0,4.1025E2,1.5E0,2E0,3.725E2,7.75E0,2.5E0,5E0,2.325E1,3.2275E2,5.325E1,3.8E1,2.555E2,1.925E1,2.275E2,1.7975E2,1.5E1,1.525E1,1.475E1,1.965E2,1.5E0,1.5075E2,3.175E1,1.925E1,1.75E0,2.3125E2,1.225E1,5.75E1,1.215E2,2.0925E2,3.15E1,5.775E1,1.025E1,4.925E1,6.365E2,2.35E1,5.575E1,7.75E0,7.025E1,6.45E1,2.56825E3,7.73275E3,1.575E1],"tree_param":{"num_deleted":"0","num_feature":"5","num_nodes":"97","size_leaf_vector":"0"}},{"base_weights":[-5.277157E-1,1.1333686E0,-1.0888252E0,1.4869722E0,5.3994197E-1,7.475103E-1,-1.2756474E0,1.5169976E0,1.0361634E0,1.1733041E0,-8.672511E-2,1.3053441E0,2.836712E-1,-5.128759E-1,-1.3644692E0,1.5222454E0,1.273767E0,1.4713128E0,1.930599E-1,1.360818E0,7.313082E-1,6.2465006E-1,-1.2403404E0,1.382872E0,3.041934E-1,9.174124E-1,-7.063723E-1,7.345351E-1,-7.576115E-1,-1.3783337E0,1.989335E0,6.277963E-1,1.4205323E0,1.8584982E-2,1.4871101E0,-1.5982832E0,1.1704355E0,1.4235989E0,-3.371143E-1,1.096957E0,-2.1036866E-1,1.0586727E0,6.241115E-2,9.877275E-1,-1.3934287E0,1.4769973E0,1.079777E0,9.908419E-1,-1.7152615E0,1.1774203E0,5.280898E-1,-8.762069E-1,4.703836E-1,1.263316E0,3.2773625E-2,7.7858436E-1,-9.502568E-1,1.5163007E-1,-1.3988214E0,-5.00589E-1,2.0773032E0,1.1385742E0,-4.3905914E-1,3.638544E-1,1.439744E0,1.4958732E0,3.6953616E-1,8.711807E-1,-1.7955769E0,1.4680134E0,-1.4318788E0,-9.470431E-1,1.4309293E0,1.3821357E0,-1.7830286E0,1.2950526E0,-1.9903438E0,4.4634077E-1,-1.7280856E0,1.1578009E0,-5.9119934E-1,1.2761902E0,-4.79126E-1,-1.3805202E0,1.5023642E0,-7.498502E-1,-1.6257888E0,1.5583149E0,1.3398758E0,1.4045256E0,-1.0839599E0,1.1377896E0,-1.2760602E0,2.8994372E-1,1.286229E0,8.457266E-1,-8.458852E-1,-2.2249015E-1,-1.6168804E0,-1.5709326E0,1.629754E0,-1.7194842E0,1.3875006E0,-1.9457484E0,1.1236173E0,1.1347876E0,-1.5774658E0,-1.4341034E-1,-1.1644471E0,-1.3133744E0,1.3866678E0,-1.1449862E0,-1.4868462E0,2.4612215E0,1.6418535E0],"categories":[],"categories_nodes":[],"categories_segments":[],"categories_sizes":[],"default_left":[1,1,1,1,1,1,1,1,1,1,1,1,1,1,1,0,1,1,1,1,1,1,1,1,1,1,1,1,1,1,1,1,1,0,1,1,1,1,1,1,1,1,1,1,1,1,1,1,0,1,1,1,1,1,1,1,1,1,1,0,1,0,0,0,0,0,0,0,0,0,0,0,0,0,0,0,0,0,0,0,0,0,0,0,0,0,0,0,0,0,0,0,0,0,0,0,0,0,0,0,0,0,0,0,0,0,0,0,0,0,0,0,0,0,0],"id":1,"left_children":[1,3,5,7,9,11,13,15,17,19,21,23,25,27,29,-1,31,33,35,37,39,41,43,45,47,49,51,53,55,57,59,61,63,-1,65,67,69,71,73,75,77,79,81,83,85,87,89,91,-1,93,95,97,99,101,103,105,107,109,111,-1,113,-1,-1,-1,-1,-1,-1,-1,-1,-1,-1,-1,-1,-1,-1,-1,-1,-1,-1,-1,-1,-1,-1,-1,-1,-1,-1,-1,-1,-1,-1,-1,-1,-1,-1,-1,-1,-1,-1,-1,-1,-1,-1,-1,-1,-1,-1,-1,-1,-1,-1,-1,-1,-1,-1],"loss_changes":[1.5011771E4,8.526084E2,4.1311016E3,3.2915527E1,6.0344653E2,2.8743744E2,7.3964844E2,1.1079102E0,5.9243805E1,6.1669678E1,6.285969E2,3.8753967E1,3.8250613E2,3.4899484E2,4.5783398E2,0E0,4.467781E0,2.424942E0,1.0059404E2,5.6945496E1,7.85229E1,1.15573E2,1.0102423E2,1.1761169E1,5.3778812E1,3.6985077E1,4.7996437E1,6.961264E1,2.8325806E2,3.0575E2,9.955124E0,7.1796846E0,3.9522552E-1,0E0,4.8243713E-1,1.1468143E1,3.0800442E1,1.0235352E1,5.1426575E1,1.0284297E2,6.499409E1,4.4412994E1,1.3700941E2,2.5679045E1,3.9721985E1,1.8649902E0,8.208574E1,1.0999472E1,0E0,2.1058228E1,6.64301E1,1.0055319E2,7.516817E1,4.2028015E1,1.7848798E2,9.15258E1,1.465072E2,2.365015E2,2.132207E2,0E0,2.5638428E0,0E0,0E0,0E0,0E0,0E0,0E0,0E0,0E0,0E0,0E0,0E0,0E0,0E0,0E0,0E0,0E0,0E0,0E0,0E0,0E0,0E0,0E0,0E0,0E0,0E0,0E0,0E0,0E0,0E0,0E0,0E0,0E0,0E0,0E0,0E0,0E0,0E0,0E0,0E0,0E0,0E0,0E0,0E0,0E0,0E0,0E0,0E0,0E0,0E0,0E0,0E0,0E0,0E0,0E0],"parents":[2147483647,0,0,1,1,2,2,3,3,4,4,5,5,6,6,7,7,8,8,9,9,10,10,11,11,12,12,13,13,14,14,16,16,17,17,18,18,19,19,20,20,21,21,22,22,23,23,24,24,25,25,26,26,27,27,28,28,29,29,30,30,31,31,32,32,34,34,35,35,36,36,37,37,38,38,39,39,40,40,41,41,42,42,43,43,44,44,45,45,46,46,47,47,49,49,50,50,51,51,52,52,53,53,54,54,55,55,56,56,57,57,58,58,60,60],"right_children":[2,4,6,8,10,12,14,16,18,20,22,24,26,28,30,-1,32,34,36,38,40,42,44,46,48,50,52,54,56,58,60,62,64,-1,66,68,70,72,74,76,78,80,82,84,86,88,90,92,-1,94,96,98,100,102,104,106,108,110,112,-1,114,-1,-1,-1,-1,-1,-1,-1,-1,-1,-1,-1,-1,-1,-1,-1,-1,-1,-1,-1,-1,-1,-1,-1,-1,-1,-1,-1,-1,-1,-1,-1,-1,-1,-1,-1,-1,-1,-1,-1,-1,-1,-1,-1,-1,-1,-1,-1,-1,-1,-1,-1,-1,-1,-1],"split_conditions":[1.3510689E1,3.3212268E3,2.1592256E3,2.5628545E3,6.5042334E0,3.625248E0,-5.407421E0,1.0810493E1,-1.6588867E1,-3.178062E0,-5.0873446E0,1.8645502E3,4.0223923E1,2.1533105E2,5.0883835E1,4.5667365E-1,1.1930119E1,-5.077922E1,8.811762E0,1.5602206E4,-1.6341267E1,-2.1782654E1,1.7552351E2,-7.0626483E0,3.6819244E1,2.1591034E2,3.1142662E1,4.0288525E1,2.9531704E3,1.6016382E2,2.2795467E1,1.7832783E1,1.076425E5,5.575495E-3,2.053544E6,1.658565E2,1.0025277E1,1.5481E5,2.1240324E2,4.4012454E2,9.629314E3,1.5396139E4,2.2639024E2,1.677417E2,2.3260841E-1,-2.4510464E1,1.2928026E3,-2.793295E0,-5.1457846E-1,1.7055466E2,7.654775E5,1.6230598E3,2.6843893E2,-2.8327602E1,1.2271398E4,-1.3092704E1,-2.6840908E1,1.7482898E4,3.699393E1,-1.501767E-1,5.276131E1,3.4157228E-1,-1.3171774E-1,1.09156325E-1,4.319232E-1,4.4876197E-1,1.10860854E-1,2.6135424E-1,-5.386731E-1,4.4040403E-1,-4.2956367E-1,-2.8411296E-1,4.2927882E-1,4.1464075E-1,-5.349086E-1,3.885158E-1,-5.971032E-1,1.3390224E-1,-5.184257E-1,3.473403E-1,-1.773598E-1,3.8285705E-1,-1.4373781E-1,-4.1415608E-1,4.5070925E-1,-2.2495507E-1,-4.8773667E-1,4.674945E-1,4.0196276E-1,4.2135772E-1,-3.2518798E-1,3.413369E-1,-3.8281807E-1,8.698312E-2,3.8586873E-1,2.53718E-1,-2.5376558E-1,-6.674705E-2,-4.8506415E-1,-4.712798E-1,4.889262E-1,-5.158453E-1,4.162502E-1,-5.8372456E-1,3.370852E-1,3.4043628E-1,-4.7323975E-1,-4.3023102E-2,-3.4933412E-1,-3.9401233E-1,4.1600037E-1,-3.4349585E-1,-4.460539E-1,7.383665E-1,4.9255607E-1],"split_indices":[3,1,1,1,4,4,4,3,3,3,3,1,3,2,4,0,3,3,3,1,4,3,2,4,3,2,4,3,1,2,3,4,0,0,0,2,3,0,2,2,1,1,2,2,3,4,1,4,0,2,0,1,2,4,1,4,4,1,3,0,4,0,0,0,0,0,0,0,0,0,0,0,0,0,0,0,0,0,0,0,0,0,0,0,0,0,0,0,0,0,0,0,0,0,0,0,0,0,0,0,0,0,0,0,0,0,0,0,0,0,0,0,0,0,0],"split_type":[0,0,0,0,0,0,0,0,0,0,0,0,0,0,0,0,0,0,0,0,0,0,0,0,0,0,0,0,0,0,0,0,0,0,0,0,0,0,0,0,0,0,0,0,0,0,0,0,0,0,0,0,0,0,0,0,0,0,0,0,0,0,0,0,0,0,0,0,0,0,0,0,0,0,0,0,0,0,0,0,0,0,0,0,0,0,0,0,0,0,0,0,0,0,0,0,0,0,0,0,0,0,0,0,0,0,0,0,0,0,0,0,0,0,0],"sum_hessian":[1.610386E4,4.0660076E3,1.2037854E4,2.546892E3,1.5191155E3,1.1113212E3,1.0926532E4,2.385636E3,1.6125612E2,7.550881E2,7.6402734E2,5.037157E2,6.076054E2,1.1403511E3,9.786181E3,2.3301038E3,5.5532032E1,1.0586903E2,5.5387085E1,5.287081E2,2.2637994E2,4.7288318E2,2.911442E2,4.6715823E2,3.6557453E1,3.7050998E2,2.3709544E2,1.8670729E2,9.5364374E2,9.746479E3,3.97026E1,1.1258143E1,4.4273888E1,1.1622797E0,1.0470675E2,1.9327742E1,3.605934E1,5.100121E2,1.8696054E1,1.6294447E2,6.3435474E1,2.663727E2,2.0651045E2,1.8367615E1,2.7277658E2,3.5350528E2,1.1365298E2,2.766145E1,8.896005E0,2.2093495E2,1.4957501E2,2.0741571E2,2.9679733E1,1.0602027E2,8.068703E1,1.05925896E2,8.4771783E2,1.2870522E2,9.617773E3,1.1947511E0,3.8507847E1,7.5677233E0,3.69042E0,1.1466248E0,4.3127262E1,1.0355625E2,1.1505047E0,1.177218E0,1.8150524E1,3.27502E1,3.3091435E0,1.1769999E0,5.0883508E2,8.560905E0,1.013515E1,1.5366512E2,9.279353E0,4.4769726E1,1.8665749E1,2.5155682E2,1.4815882E1,6.329255E1,1.4321791E2,2.978532E0,1.5389083E1,7.348071E1,1.9929587E2,2.1540077E2,1.3810449E2,9.91263E1,1.4526683E1,2.644527E1,1.2161779E0,2.4529509E1,1.9640544E2,1.2180134E2,2.7773676E1,1.1086601E2,9.65497E1,1.0622171E1,1.9057562E1,3.7241204E0,1.0229615E2,2.8397406E1,5.2289623E1,9.2464806E1,1.3461089E1,1.7818208E2,6.6953577E2,5.8842587E1,6.986263E1,2.4800698E3,7.137703E3,1.7992468E1,2.0515379E1],"tree_param":{"num_deleted":"0","num_feature":"5","num_nodes":"115","size_leaf_vector":"0"}},{"base_weights":[-4.3715805E-1,9.7420746E-1,-8.932492E-1,1.2832316E0,4.7917926E-1,4.2399222E-1,-1.0879445E0,1.309638E0,8.999321E-1,9.7668177E-1,-1.3017321E-3,1.055962E0,-2.1205055E-2,-8.4694296E-2,-1.142589E0,1.3125039E0,6.382232E-1,1.0100905E0,-1.2807565E0,1.0780816E0,2.7603352E-1,7.559588E-1,-5.906607E-1,1.3559608E0,7.619559E-1,6.085435E-1,-8.093238E-1,8.327721E-1,-3.5491306E-1,-5.356899E-1,-1.2057154E0,1.3211787E0,1.1373382E0,1.0329351E0,-5.954264E-1,1.261474E0,4.4185194E-1,1.1747041E0,4.0493885E-1,8.100931E-1,-1.2463164E0,8.7809175E-1,-6.1522824E-1,1.0009423E0,-8.696688E-1,1.2982804E0,3.282353E0,1.070685E0,-1.785198E-1,8.100377E-1,4.620458E-4,-3.4511366E-1,-1.3447777E0,4.4204354E-2,1.1197684E0,2.11666E-1,-1.1591321E0,-7.4066603E-1,1.6070281E0,-1.2430692E0,-6.728411E-1,1.1804808E0,-1.3610363E0,1.2178401E0,-2.9834207E-2,-1.07457E0,2.0426422E-1,1.5598005E-2,1.2773395E0,-1.239859E0,1.1663687E0,1.467684E-1,1.2161208E0,-1.3100072E0,7.512121E-1,-1.8703024E0,9.204809E-1,1.2703977E0,-1.6460335E0,6.75994E-1,1.3903726E0,-1.4425251E0,8.351439E-1,1.3990524E0,-1.0161962E-1,-9.957549E-1,1.1889106E0,1.3112471E0,3.9493304E-1,9.89568E-1,2.3779511E0,1.0078273E0,-6.227032E-1,1.2735032E0,5.0185657E-1,5.01022E-1,-1.3719096E0,-5.4398316E-1,1.7392375E0,-1.3627684E0,7.8527313E-1,1.3584206E0,-1.6169459E0,1.3079721E0,3.0338505E-1,-1.9805786E-1,1.4642015E0,5.7201225E-1,-1.3928455E0,1.009819E0,-1.0346844E0,-1.2276431E0,1.8778677E0,-1.2488766E0,1.6487439E0,-7.4461746E-1,9.2032844E-1],"categories":[],"categories_nodes":[],"categories_segments":[],"categories_sizes":[],"default_left":[1,1,1,1,1,1,1,1,1,1,1,1,1,1,1,1,1,1,0,1,1,1,1,1,1,1,1,1,1,1,1,0,1,1,1,1,1,1,1,1,1,1,1,1,1,1,0,1,1,1,1,1,1,1,1,1,1,1,1,1,1,0,0,0,0,0,0,0,0,0,0,0,0,0,0,0,0,0,0,0,0,0,0,0,0,0,0,0,0,0,0,0,0,0,0,0,0,0,0,0,0,0,0,0,0,0,0,0,0,0,0,0,0,0,0,0,0],"id":2,"left_children":[1,3,5,7,9,11,13,15,17,19,21,23,25,27,29,31,33,35,-1,37,39,41,43,45,47,49,51,53,55,57,59,-1,61,63,65,67,69,71,73,75,77,79,81,83,85,87,-1,89,91,93,95,97,99,101,103,105,107,109,111,113,115,-1,-1,-1,-1,-1,-1,-1,-1,-1,-1,-1,-1,-1,-1,-1,-1,-1,-1,-1,-1,-1,-1,-1,-1,-1,-1,-1,-1,-1,-1,-1,-1,-1,-1,-1,-1,-1,-1,-1,-1,-1,-1,-1,-1,-1,-1,-1,-1,-1,-1,-1,-1,-1,-1,-1,-1],"loss_changes":[8.999629E3,5.2175244E2,2.7101719E3,2.0094238E1,3.1409613E2,3.8302548E2,5.045664E2,2.9414062E0,3.4602013E1,4.5566467E1,2.9920944E2,4.8593323E1,3.9737167E2,1.18447685E2,3.338086E2,1.4682617E0,5.62779E0,1.8376617E1,0E0,3.618109E1,6.845784E1,4.9678024E1,1.6828789E2,2.6540253E1,8.336133E1,5.45298E1,8.7923676E1,2.455761E1,1.6831372E2,3.6322217E2,1.5654492E2,0E0,1.2323425E1,1.6408033E0,1.4186939E0,1.7858429E0,5.2854786E1,2.07818E1,4.390087E1,2.0072418E1,2.4161102E1,2.6996017E1,3.070459E1,2.5028706E1,8.458249E1,2.6541138E0,0E0,2.0530258E1,3.8383663E1,4.7107224E1,7.746789E1,8.045564E1,7.384735E0,6.780684E1,1.1845009E1,1.11777695E2,6.2540726E1,3.8859674E2,5.7800476E1,1.2612402E2,6.016159E1,0E0,0E0,0E0,0E0,0E0,0E0,0E0,0E0,0E0,0E0,0E0,0E0,0E0,0E0,0E0,0E0,0E0,0E0,0E0,0E0,0E0,0E0,0E0,0E0,0E0,0E0,0E0,0E0,0E0,0E0,0E0,0E0,0E0,0E0,0E0,0E0,0E0,0E0,0E0,0E0,0E0,0E0,0E0,0E0,0E0,0E0,0E0,0E0,0E0,0E0,0E0,0E0,0E0,0E0,0E0,0E0],"parents":[2147483647,0,0,1,1,2,2,3,3,4,4,5,5,6,6,7,7,8,8,9,9,10,10,11,11,12,12,13,13,14,14,15,15,16,16,17,17,19,19,20,20,21,21,22,22,23,23,24,24,25,25,26,26,27,27,28,28,29,29,30,30,32,32,33,33,34,34,35,35,36,36,37,37,38,38,39,39,40,40,41,41,42,42,43,43,44,44,45,45,47,47,48,48,49,49,50,50,51,51,52,52,53,53,54,54,55,55,56,56,57,57,58,58,59,59,60,60],"right_children":[2,4,6,8,10,12,14,16,18,20,22,24,26,28,30,32,34,36,-1,38,40,42,44,46,48,50,52,54,56,58,60,-1,62,64,66,68,70,72,74,76,78,80,82,84,86,88,-1,90,92,94,96,98,100,102,104,106,108,110,112,114,116,-1,-1,-1,-1,-1,-1,-1,-1,-1,-1,-1,-1,-1,-1,-1,-1,-1,-1,-1,-1,-1,-1,-1,-1,-1,-1,-1,-1,-1,-1,-1,-1,-1,-1,-1,-1,-1,-1,-1,-1,-1,-1,-1,-1,-1,-1,-1,-1,-1,-1,-1,-1,-1,-1,-1,-1],"split_conditions":[1.1729786E1,3.3212268E3,2.6653608E3,2.5628545E3,6.5361333E0,3.625248E0,-1.6497456E1,1.0810493E1,3.347138E2,1.3092449E4,-1.6814255E1,2.0064468E2,3.9632484E1,2.228728E2,1.927055E2,2.2272827E3,2.8683566E2,-1.6425743E1,-3.8422695E-1,1.7311941E0,-1.5235457E1,1.4402244E4,1.8741357E2,2.6369836E3,4.125423E1,2.6749255E2,1.9494736E3,8.427187E3,8.1083926E3,4.585653E1,1.7022065E6,3.9635363E-1,5.5787945E0,2.8792028E1,4.6089166E2,-5.077922E1,8.521313E0,4.23794E5,4.64907E0,1.4563366E4,2.1095184E2,4.8230927E1,1.6699145E6,6.7860195E3,3.2172035E4,2.2502295E3,9.847059E-1,2.5537424E3,-2.1737906E1,1.9715727E1,2.0656921E3,1.9490564E3,5.481087E1,2.099194E1,-2.4045341E1,7.484593E3,1.6550156E1,9.326952E0,5.3312993E3,5.140314E1,6.790492E2,3.5414428E-1,-4.0831092E-1,3.6535203E-1,-8.950262E-3,-3.22371E-1,6.127927E-2,4.6794014E-3,3.8320187E-1,-3.7195772E-1,3.4991062E-1,4.4030525E-2,3.6483628E-1,-3.9300218E-1,2.2536364E-1,-5.6109077E-1,2.761443E-1,3.811193E-1,-4.938101E-1,2.027982E-1,4.171118E-1,-4.3275756E-1,2.5054318E-1,4.1971573E-1,-3.0485889E-2,-2.9872647E-1,3.5667318E-1,3.9337415E-1,1.18479915E-1,2.968704E-1,7.1338534E-1,3.023482E-1,-1.8681097E-1,3.8205096E-1,1.5055698E-1,1.503066E-1,-4.115729E-1,-1.6319495E-1,5.217713E-1,-4.0883055E-1,2.3558195E-1,4.075262E-1,-4.850838E-1,3.9239165E-1,9.101552E-2,-5.941736E-2,4.3926045E-1,1.7160368E-1,-4.1785368E-1,3.0294573E-1,-3.1040534E-1,-3.6829296E-1,5.6336033E-1,-3.74663E-1,4.9462318E-1,-2.2338524E-1,2.7609855E-1],"split_indices":[3,1,1,1,4,4,4,3,2,1,3,2,3,2,2,1,2,3,0,3,4,1,2,1,3,2,1,1,1,4,0,0,3,4,2,3,3,0,3,1,2,4,0,1,1,1,0,1,4,4,1,1,3,3,4,1,3,4,1,4,2,0,0,0,0,0,0,0,0,0,0,0,0,0,0,0,0,0,0,0,0,0,0,0,0,0,0,0,0,0,0,0,0,0,0,0,0,0,0,0,0,0,0,0,0,0,0,0,0,0,0,0,0,0,0,0,0],"split_type":[0,0,0,0,0,0,0,0,0,0,0,0,0,0,0,0,0,0,0,0,0,0,0,0,0,0,0,0,0,0,0,0,0,0,0,0,0,0,0,0,0,0,0,0,0,0,0,0,0,0,0,0,0,0,0,0,0,0,0,0,0,0,0,0,0,0,0,0,0,0,0,0,0,0,0,0,0,0,0,0,0,0,0,0,0,0,0,0,0,0,0,0,0,0,0,0,0,0,0,0,0,0,0,0,0,0,0,0,0,0,0,0,0,0,0,0,0],"sum_hessian":[1.3978495E4,3.413707E3,1.0564788E4,2.100725E3,1.3129817E3,1.3602988E3,9.204489E3,1.9630682E3,1.3765697E2,6.4455743E2,6.6842426E2,5.616497E2,7.986491E2,4.7558008E2,8.728909E3,1.9537738E3,9.2944765E0,1.3154854E2,6.1084256E0,5.6259796E2,8.195952E1,2.924176E2,3.7600668E2,2.7620395E2,2.8544577E2,4.4405417E2,3.5459494E2,1.0772898E2,3.678511E2,8.232871E2,7.9056226E3,1.8553481E3,9.842557E1,7.164774E0,2.129703E0,9.035593E1,4.1192616E1,4.91328E2,7.126993E1,6.102059E1,2.0938927E1,2.6883206E2,2.3585516E1,5.569676E1,3.2030994E2,2.6979947E2,6.4044557E0,2.1479631E2,7.064946E1,3.332847E2,1.1076949E2,1.9081393E2,1.63781E2,2.9053608E1,7.867537E1,2.1624295E2,1.5160817E2,7.520035E2,7.128363E1,7.386506E3,5.1911633E2,9.727332E1,1.1522453E0,5.9786687E0,1.1861051E0,1.1168174E0,1.0128857E0,1.1611015E0,8.919483E1,1.2188953E1,2.900366E1,1.920546E1,4.7212256E2,1.1505392E1,5.9764538E1,1.7830174E0,5.9237576E1,2.571282E0,1.8367645E1,1.9444284E2,7.4389244E1,1.502221E1,8.563306E0,4.0723515E1,1.4973247E1,3.0231E2,1.799992E1,2.6553638E2,4.26309E0,2.0390103E2,1.0895276E1,1.8900398E1,5.174906E1,1.3185663E2,2.0142805E2,8.163046E1,2.9139038E1,1.748686E2,1.5945325E1,1.6276648E2,1.0145286E0,1.6322405E1,1.2731203E1,6.3446636E1,1.5228734E1,1.6357643E2,5.2666523E1,1.7861122E1,1.3374704E2,1.077949E2,6.4420856E2,5.9087305E0,6.53749E1,7.372269E3,1.4237046E1,4.9724673E2,2.186961E1],"tree_param":{"num_deleted":"0","num_feature":"5","num_nodes":"117","size_leaf_vector":"0"}},{"base_weights":[-3.739272E-1,8.2162565E-1,-7.712898E-1,1.1789333E0,3.7851453E-1,3.8588807E-1,-9.285696E-1,1.1924167E0,9.249842E-1,8.635554E-1,-7.491651E-3,7.6407224E-1,-1.7756554E-1,-5.72392E-1,-1.0681185E0,1.2254728E0,1.1479697E0,1.011521E0,-1.6043833E0,9.55355E-1,-1.8663512E-1,7.1951044E-1,-4.1274536E-1,1.0787102E0,4.1334534E-1,2.7159467E-1,-1.0916098E0,-1.4380077E-2,-8.31005E-1,4.362623E-1,-1.1002877E0,1.1903094E0,9.750624E-1,5.971003E-1,1.1521494E0,-1.4277105E0,9.6668917E-1,1.012609E0,-9.03004E-1,-1.4922332E0,7.949522E-1,7.009595E-1,-5.630932E-1,1.2484525E0,8.1185913E-1,9.217188E-1,-3.979266E-1,7.732933E-1,-7.797229E-1,5.206729E-1,-1.2732372E0,3.936723E-1,-7.745196E-1,1.857421E-1,-9.568571E-1,-5.336004E-1,1.3017883E0,-1.1254869E0,-6.813837E-2,1.1981237E0,7.309755E-1,8.1469065E-1,-1.8541481E0,1.1683913E0,9.85809E-2,1.1394142E0,7.951107E-1,1.12422E0,-4.2292404E-1,-1.5491915E0,3.097729E-1,1.176093E0,5.213893E-1,1.1256473E0,-4.0757334E-1,7.939062E-1,-6.598977E-1,1.2033676E0,2.258011E0,1.0256392E0,-6.227682E-1,1.2058395E0,7.373831E-1,2.6791242E-1,-1.1863471E0,4.164192E-1,1.3911467E0,-1.9016047E0,9.222287E-2,-1.4073671E0,1.1853229E0,-1.2954131E0,7.1378773E-1,2.0919096E-1,2.257978E0,-9.4747335E-1,2.0546432E0,1.5549623E0,-2.8099334E-1,8.984956E-1,-9.957542E-1,9.074389E-1,-1.1832988E0,4.358763E-1,1.4570031E0,-8.674347E-1,-1.208387E0,-6.620535E-1,1.601848E0],"categories":[],"categories_nodes":[],"categories_segments":[],"categories_sizes":[],"default_left":[1,1,1,1,1,1,1,1,1,1,1,1,1,1,1,0,1,1,0,1,1,1,1,1,1,1,1,1,1,1,1,0,1,1,1,0,1,1,1,0,1,1,1,1,1,1,1,1,1,1,1,1,1,1,1,1,1,1,1,0,0,0,0,0,0,0,0,0,0,0,0,0,0,0,0,0,0,0,0,0,0,0,0,0,0,0,0,0,0,0,0,0,0,0,0,0,0,0,0,0,0,0,0,0,0,0,0,0,0],"id":3,"left_children":[1,3,5,7,9,11,13,15,17,19,21,23,25,27,29,-1,31,33,-1,35,37,39,41,43,45,47,49,51,53,55,57,-1,59,61,63,-1,65,67,69,-1,71,73,75,77,79,81,83,85,87,89,91,93,95,97,99,101,103,105,107,-1,-1,-1,-1,-1,-1,-1,-1,-1,-1,-1,-1,-1,-1,-1,-1,-1,-1,-1,-1,-1,-1,-1,-1,-1,-1,-1,-1,-1,-1,-1,-1,-1,-1,-1,-1,-1,-1,-1,-1,-1,-1,-1,-1,-1,-1,-1,-1,-1,-1],"loss_changes":[5.6316924E3,4.677787E2,1.6195884E3,4.5012207E0,2.4745312E2,2.2712813E2,3.8870117E2,8.7158203E-1,2.0660835E1,5.6643005E1,2.1741356E2,6.991522E1,1.7627545E2,3.1848663E2,2.727744E2,0E0,3.7971191E0,4.249115E0,0E0,1.5932404E1,4.2080513E1,4.525789E1,7.973095E1,1.4182007E1,1.2538751E2,1.5261697E2,4.2078842E1,2.174162E2,1.9315369E2,1.0017958E2,1.4320898E2,0E0,6.678116E0,1.4065505E1,9.487457E-1,0E0,1.5003143E1,3.422062E0,2.4403194E1,0E0,2.6085907E1,2.7199574E1,5.5435104E1,6.530945E0,4.1517357E1,8.886734E0,6.1988037E1,4.2550888E1,9.173978E1,2.092764E1,6.538513E0,1.5640262E2,1.2174785E2,1.0712705E2,9.775476E1,5.4062523E1,7.8209763E0,1.1399414E2,1.3233685E2,0E0,0E0,0E0,0E0,0E0,0E0,0E0,0E0,0E0,0E0,0E0,0E0,0E0,0E0,0E0,0E0,0E0,0E0,0E0,0E0,0E0,0E0,0E0,0E0,0E0,0E0,0E0,0E0,0E0,0E0,0E0,0E0,0E0,0E0,0E0,0E0,0E0,0E0,0E0,0E0,0E0,0E0,0E0,0E0,0E0,0E0,0E0,0E0,0E0,0E0],"parents":[2147483647,0,0,1,1,2,2,3,3,4,4,5,5,6,6,7,7,8,8,9,9,10,10,11,11,12,12,13,13,14,14,16,16,17,17,19,19,20,20,21,21,22,22,23,23,24,24,25,25,26,26,27,27,28,28,29,29,30,30,32,32,33,33,34,34,36,36,37,37,38,38,40,40,41,41,42,42,43,43,44,44,45,45,46,46,47,47,48,48,49,49,50,50,51,51,52,52,53,53,54,54,55,55,56,56,57,57,58,58],"right_children":[2,4,6,8,10,12,14,16,18,20,22,24,26,28,30,-1,32,34,-1,36,38,40,42,44,46,48,50,52,54,56,58,-1,60,62,64,-1,66,68,70,-1,72,74,76,78,80,82,84,86,88,90,92,94,96,98,100,102,104,106,108,-1,-1,-1,-1,-1,-1,-1,-1,-1,-1,-1,-1,-1,-1,-1,-1,-1,-1,-1,-1,-1,-1,-1,-1,-1,-1,-1,-1,-1,-1,-1,-1,-1,-1,-1,-1,-1,-1,-1,-1,-1,-1,-1,-1,-1,-1,-1,-1,-1,-1],"split_conditions":[1.3905052E1,2.634284E3,2.465103E3,2.3142212E3,-1.6842415E1,1.6719032E3,9.14843E0,-2.2240965E1,5.5787945E0,1.226996E4,-3.9370987E0,9.465315E0,4.2353394E1,3.7357185E1,1.6016382E2,3.6764187E-1,1.7879631E3,2.5417114E3,-4.8131502E-1,2.915764E3,2.2848625E2,4.834546E3,1.8714969E2,1.9799426E2,3.7240364E1,1.9945568E1,-1.49333515E1,9.00698E3,2.0428801E2,1.7482898E4,4.7370884E1,3.5709283E-1,3.2315928E-1,3.6585228E1,5.51732E1,-4.2831317E-1,6.558853E0,-2.1922962E1,1.6455015E6,-4.4766995E-1,-4.3704124E1,-6.7052734E-1,2.8568213E3,8.317699E0,6.944935E5,1.846382E1,2.0429216E1,1.8041023E1,2.7007E2,4.9691257E1,5.550654E1,8.53088E3,8.7260913E2,3.7988022E3,2.5907515E3,1.5060844E2,4.430168E1,3.5181072E1,2.9485603E1,3.594371E-1,2.1929266E-1,2.444072E-1,-5.562445E-1,3.5051742E-1,2.957427E-2,3.4182426E-1,2.3853321E-1,3.3726603E-1,-1.2687722E-1,-4.6475747E-1,9.2931874E-2,3.528279E-1,1.564168E-1,3.376942E-1,-1.2227201E-1,2.3817188E-1,-1.9796932E-1,3.6101028E-1,6.7740333E-1,3.0769175E-1,-1.8683048E-1,3.6175185E-1,2.2121495E-1,8.037373E-2,-3.5590416E-1,1.2492577E-1,4.17344E-1,-5.704814E-1,2.7666861E-2,-4.2221016E-1,3.5559687E-1,-3.8862395E-1,2.1413633E-1,6.275729E-2,6.7739344E-1,-2.84242E-1,6.1639297E-1,4.664887E-1,-8.429801E-2,2.6954868E-1,-2.9872626E-1,2.7223167E-1,-3.5498965E-1,1.307629E-1,4.3710095E-1,-2.6023042E-1,-3.625161E-1,-1.9861607E-1,4.8055443E-1],"split_indices":[3,1,1,1,3,1,4,3,3,1,4,4,3,3,2,0,1,1,0,1,2,1,2,2,3,4,4,1,2,1,4,0,4,4,4,0,4,3,0,0,4,3,1,4,0,3,4,4,2,3,3,1,2,1,1,2,3,3,3,0,0,0,0,0,0,0,0,0,0,0,0,0,0,0,0,0,0,0,0,0,0,0,0,0,0,0,0,0,0,0,0,0,0,0,0,0,0,0,0,0,0,0,0,0,0,0,0,0,0],"split_type":[0,0,0,0,0,0,0,0,0,0,0,0,0,0,0,0,0,0,0,0,0,0,0,0,0,0,0,0,0,0,0,0,0,0,0,0,0,0,0,0,0,0,0,0,0,0,0,0,0,0,0,0,0,0,0,0,0,0,0,0,0,0,0,0,0,0,0,0,0,0,0,0,0,0,0,0,0,0,0,0,0,0,0,0,0,0,0,0,0,0,0,0,0,0,0,0,0,0,0,0,0,0,0,0,0,0,0,0,0],"sum_hessian":[1.1852163E4,2.9563293E3,8.895834E3,1.6357019E3,1.3206273E3,1.0642458E3,7.831588E3,1.5497242E3,8.597767E1,5.846903E2,7.35937E2,6.3660626E2,4.2763953E2,2.2060576E3,5.6255303E3,8.735052E2,6.7621906E2,8.371368E1,2.2639923E0,5.3777264E2,4.6917667E1,2.631269E2,4.7281012E2,3.3447357E2,3.021327E2,2.872085E2,1.4043103E2,6.9895996E2,1.5070977E3,1.17513275E2,5.508017E3,5.384785E2,1.3774059E2,2.2539E1,6.1174675E1,1.954066E0,5.358186E2,1.7390837E1,2.9526829E1,8.05967E0,2.5506721E2,5.580098E1,4.1700916E2,2.0218588E2,1.3228769E2,1.8565695E2,1.16475746E2,1.9460542E2,9.260308E1,1.4029168E1,1.2640186E2,4.551252E2,2.4383476E2,1.6594759E2,1.34115E3,5.5597332E1,6.191594E1,5.3766597E3,1.3135767E2,6.9927765E1,6.781282E1,2.1314606E1,1.224394E0,6.013859E1,1.0360866E0,2.6420605E2,2.7161252E2,1.633748E1,1.0533566E0,1.9082153E1,1.0444676E1,1.0519934E2,1.4986787E2,4.0333466E1,1.5467513E1,2.7287895E1,3.8972125E2,1.9564093E2,6.5449624E0,1.1537956E2,1.6908127E1,7.087465E1,1.147823E2,6.350474E1,5.297101E1,1.2441621E2,7.018922E1,3.9981E1,5.2622086E1,3.3099866E0,1.0719181E1,1.2535096E2,1.050901E0,4.1515588E2,3.9969307E1,2.304141E2,1.3420679E1,4.1594353E1,1.24353226E2,2.7085777E1,1.3140642E3,1.7153639E1,3.844369E1,9.990298E0,5.1925644E1,1.3100833E3,4.0665762E3,9.734233E1,3.401534E1],"tree_param":{"num_deleted":"0","num_feature":"5","num_nodes":"109","size_leaf_vector":"0"}},{"base_weights":[-3.2491165E-1,5.3291446E-1,-7.488592E-1,9.967262E-1,-4.5787324E-3,1.9403064E-1,-8.667496E-1,9.64658E-1,4.749722E0,5.023688E-1,-5.21668E-1,4.6424845E-1,-5.288125E-1,-9.4646585E-1,-1.5765831E-1,1.0785656E0,5.1804495E-1,6.514931E-1,-2.017207E-1,2.6852855E-1,-8.697032E-1,8.998791E-1,1.4607427E-1,-1.0125287E0,-3.675012E-2,-6.829023E-1,-1.0532671E0,6.7660767E-1,-3.5153404E-1,1.1215023E0,8.7183726E-1,1.0589979E0,1.653333E-1,9.4204485E-1,4.2086118E-1,1.0056622E0,-9.049594E-1,6.25796E-2,2.2470663E0,7.628201E-1,-1.0556394E0,1.0591555E0,4.440266E-1,9.160684E-1,-2.6118422E-1,5.276417E-1,-1.2409384E0,2.0228232E-1,-9.6558917E-1,3.5985556E-1,-7.849248E-1,-1.066203E0,6.10104E-1,5.207041E-1,1.6107872E0,2.834777E-1,-5.4552317E-1,1.1511456E0,1.0774055E0,9.5122004E-1,-6.085095E-2,1.1182646E0,-1.7366751E0,8.6279345E-1,-4.070205E-1,-1.2700543E0,9.7732866E-1,-2.0519085E-3,8.606718E-1,-1.2285588E0,1.0801772E0,1.0207125E0,-1.2195524E0,3.8427675E-1,-4.7195795E-1,2.4655404E0,-8.861853E-1,-7.501188E-1,2.5474472E0,-1.0918801E0,8.207544E-2,9.745116E-1,1.9189032E0,9.3308824E-1,-1.2042598E0,6.1478615E-1,1.4873985E0,3.5034183E-1,-8.5761034E-1,9.6967894E-1,-6.4484644E-1,-1.2716488E0,7.206264E-1,-1.280101E-1,9.6535534E-1,-1.3707957E0,1.2874837E0,1.6743466E0,-1.23132095E-2,-6.234869E-1,-1.1756141E0,-4.158096E-2,-1.0814861E0,-1.1544662E0,1.3975915E0,5.6047667E-2,1.114349E0,1.1696949E0,2.1321282E0,1.1677992E-1,2.3402874E0,7.969765E-2,-6.911817E-1],"categories":[],"categories_nodes":[],"categories_segments":[],"categories_sizes":[],"default_left":[1,1,1,1,1,1,1,1,0,1,1,1,1,1,1,1,1,1,1,1,1,1,1,1,1,1,1,1,1,1,1,1,1,1,1,1,1,1,1,1,1,1,1,1,1,1,1,1,1,1,1,1,1,1,1,1,1,0,0,0,0,0,0,0,0,0,0,0,0,0,0,0,0,0,0,0,0,0,0,0,0,0,0,0,0,0,0,0,0,0,0,0,0,0,0,0,0,0,0,0,0,0,0,0,0,0,0,0,0,0,0,0,0],"id":4,"left_children":[1,3,5,7,9,11,13,15,-1,17,19,21,23,25,27,29,31,33,35,37,39,41,43,45,47,49,51,53,55,57,59,61,63,65,67,69,71,73,75,77,79,81,83,85,87,89,91,93,95,97,99,101,103,105,107,109,111,-1,-1,-1,-1,-1,-1,-1,-1,-1,-1,-1,-1,-1,-1,-1,-1,-1,-1,-1,-1,-1,-1,-1,-1,-1,-1,-1,-1,-1,-1,-1,-1,-1,-1,-1,-1,-1,-1,-1,-1,-1,-1,-1,-1,-1,-1,-1,-1,-1,-1,-1,-1,-1,-1,-1,-1],"loss_changes":[3.620249E3,8.208696E2,7.406819E2,2.0814233E2,4.0033972E2,1.4501736E2,3.345791E2,8.866162E1,0E0,8.1102264E1,2.0815697E2,7.472103E1,4.8077785E1,1.4911768E2,9.7225555E1,1.1417725E1,6.8193886E1,4.226413E1,1.1600185E2,9.436868E1,1.6019778E2,1.6065857E1,9.848142E1,3.650251E1,2.2674494E1,1.6388428E2,8.211865E1,1.5679234E1,6.017333E1,2.6672363E-1,1.817189E1,2.5344086E1,8.741042E1,2.316652E1,6.635158E1,9.71196E0,5.3455414E1,3.6481846E1,1.7133736E1,1.4844682E2,1.9544006E1,1.0359924E1,5.004969E1,1.7779015E1,7.532025E1,7.8097563E0,6.2800903E0,2.0627146E1,2.0841936E1,6.740316E1,8.763696E1,5.879248E1,4.3097275E1,2.7155329E1,1.126297E0,3.904304E1,3.4074066E1,0E0,0E0,0E0,0E0,0E0,0E0,0E0,0E0,0E0,0E0,0E0,0E0,0E0,0E0,0E0,0E0,0E0,0E0,0E0,0E0,0E0,0E0,0E0,0E0,0E0,0E0,0E0,0E0,0E0,0E0,0E0,0E0,0E0,0E0,0E0,0E0,0E0,0E0,0E0,0E0,0E0,0E0,0E0,0E0,0E0,0E0,0E0,0E0,0E0,0E0,0E0,0E0,0E0,0E0,0E0,0E0],"parents":[2147483647,0,0,1,1,2,2,3,3,4,4,5,5,6,6,7,7,9,9,10,10,11,11,12,12,13,13,14,14,15,15,16,16,17,17,18,18,19,19,20,20,21,21,22,22,23,23,24,24,25,25,26,26,27,27,28,28,29,29,30,30,31,31,32,32,33,33,34,34,35,35,36,36,37,37,38,38,39,39,40,40,41,41,42,42,43,43,44,44,45,45,46,46,47,47,48,48,49,49,50,50,51,51,52,52,53,53,54,54,55,55,56,56],"right_children":[2,4,6,8,10,12,14,16,-1,18,20,22,24,26,28,30,32,34,36,38,40,42,44,46,48,50,52,54,56,58,60,62,64,66,68,70,72,74,76,78,80,82,84,86,88,90,92,94,96,98,100,102,104,106,108,110,112,-1,-1,-1,-1,-1,-1,-1,-1,-1,-1,-1,-1,-1,-1,-1,-1,-1,-1,-1,-1,-1,-1,-1,-1,-1,-1,-1,-1,-1,-1,-1,-1,-1,-1,-1,-1,-1,-1,-1,-1,-1,-1,-1,-1,-1,-1,-1,-1,-1,-1,-1,-1,-1,-1,-1,-1],"split_conditions":[2.4041096E1,4.008321E3,2.465103E3,4.0048367E3,1.7277381E0,2.0558195E1,1.644664E6,2.2272827E3,1.4249166E0,1.2302434E4,5.7289476E0,1.9981625E2,3.0253012E1,9.14843E0,1.927307E2,9.138052E0,-6.232067E0,2.3218393E0,2.2848625E2,8.656643E2,1.8536298E2,4.9084034E1,3.388354E1,3.644245E5,2.0541018E3,1.9947801E2,4.9013046E1,4.781504E1,-5.4677153E0,-2.2240965E1,1.9066859E3,4.5788385E2,-1.4223964E1,3.323905E5,8.311659E3,1.3846734E4,-4.606694E1,1.6550156E1,8.9995557E2,1.85349E2,7.317215E2,1.9633232E1,5.2675567E0,2.4179639E3,6.08214E5,3.042256E2,5.0160385E1,1.9456226E3,5.1813602E1,3.629185E1,1.129864E4,1.6016382E2,2.7808859E1,1.5857285E4,1.8229501E2,5.2207283E1,3.0341328E1,3.4534368E-1,3.2322165E-1,2.8536603E-1,-1.8255286E-2,3.3547938E-1,-5.210026E-1,2.5883806E-1,-1.2210616E-1,-3.810163E-1,2.9319862E-1,-6.1557256E-4,2.5820157E-1,-3.6856765E-1,3.2405317E-1,3.0621377E-1,-3.6586574E-1,1.1528303E-1,-1.4158739E-1,7.396622E-1,-2.658556E-1,-2.2503565E-1,7.642342E-1,-3.2756403E-1,2.4622632E-2,2.923535E-1,5.75671E-1,2.7992648E-1,-3.6127794E-1,1.8443584E-1,4.4621956E-1,1.05102554E-1,-2.5728312E-1,2.909037E-1,-1.9345394E-1,-3.8149464E-1,2.1618794E-1,-3.840303E-2,2.896066E-1,-4.1123873E-1,3.8624513E-1,5.02304E-1,-3.693963E-3,-1.8704607E-1,-3.5268426E-1,-1.2474288E-2,-3.2444584E-1,-3.4633985E-1,4.1927746E-1,1.68143E-2,3.3430472E-1,3.509085E-1,6.396385E-1,3.503398E-2,7.0208627E-1,2.3909297E-2,-2.0735453E-1],"split_indices":[3,1,1,1,3,4,0,1,0,1,4,2,4,4,2,3,4,4,2,2,2,3,3,0,1,2,4,4,4,3,1,2,3,0,1,1,4,3,2,2,2,4,4,1,0,2,3,1,4,3,1,2,3,1,2,3,3,0,0,0,0,0,0,0,0,0,0,0,0,0,0,0,0,0,0,0,0,0,0,0,0,0,0,0,0,0,0,0,0,0,0,0,0,0,0,0,0,0,0,0,0,0,0,0,0,0,0,0,0,0,0,0,0],"split_type":[0,0,0,0,0,0,0,0,0,0,0,0,0,0,0,0,0,0,0,0,0,0,0,0,0,0,0,0,0,0,0,0,0,0,0,0,0,0,0,0,0,0,0,0,0,0,0,0,0,0,0,0,0,0,0,0,0,0,0,0,0,0,0,0,0,0,0,0,0,0,0,0,0,0,0,0,0,0,0,0,0,0,0,0,0,0,0,0,0,0,0,0,0,0,0,0,0,0,0,0,0,0,0,0,0,0,0,0,0,0,0,0,0],"sum_hessian":[9.952575E3,3.2917366E3,6.660839E3,1.7665215E3,1.525215E3,7.401842E2,5.920655E3,1.7528014E3,1.3720107E1,7.7017444E2,7.550405E2,5.390361E2,2.0114813E2,5.3220176E3,5.986374E2,1.3954742E3,3.573272E2,6.356254E2,1.3454904E2,2.3093732E2,5.241032E2,2.2675053E2,3.1228552E2,1.0090093E2,1.0024719E2,1.5368307E3,3.7851868E3,1.1241498E2,4.8622244E2,1.1518207E3,2.436536E2,1.4023961E2,2.1708759E2,2.7990915E2,3.5571628E2,4.936491E1,8.518413E1,2.1009938E2,2.083793E1,5.3271935E1,4.7083127E2,1.6705685E2,5.9693687E1,1.07599785E2,2.0468575E2,1.2862034E1,8.80389E1,8.0351364E1,1.9895832E1,1.3673674E2,1.400094E3,3.7563333E3,2.885355E1,9.767205E1,1.4742927E1,1.1366983E2,3.725526E2,6.7377893E2,4.7804172E2,2.2452408E2,1.9129526E1,1.3791588E2,2.3237367E0,9.7620964E1,1.1946661E2,3.84513E0,2.7606403E2,1.8184912E2,1.7386716E2,1.0934051E0,4.8271507E1,1.1646932E1,7.353719E1,1.3133813E2,7.8761246E1,1.9678875E1,1.1590555E0,2.9144238E1,2.4127699E1,4.5633545E2,1.4495798E1,1.5402615E2,1.3030698E1,4.6369373E1,1.3324313E1,7.180865E1,3.5791138E1,1.01267265E2,1.0341848E2,9.466183E0,3.3958516E0,8.702811E1,1.0107932E0,5.6659023E1,2.3692337E1,1.7194971E1,2.700862E0,2.9399506E1,1.0733723E2,9.925535E2,4.0754037E2,5.526013E1,3.701073E3,8.759532E0,2.0094019E1,5.5402184E1,4.2269867E1,9.743148E0,4.999779E0,1.0612548E2,7.544349E0,7.0479805E1,3.0207278E2],"tree_param":{"num_deleted":"0","num_feature":"5","num_nodes":"113","size_leaf_vector":"0"}},{"base_weights":[-2.8317058E-1,6.294453E-1,-5.8322304E-1,1.031563E0,2.4995403E-1,2.248397E-1,-7.222325E-1,1.0965927E0,9.51405E-1,6.623205E-1,-3.814139E-2,7.303371E-1,-5.462686E-2,-9.6620575E-2,-8.2691294E-1,1.0402377E0,6.964475E-1,9.1418606E-1,4.5166528E-1,9.2754495E-1,-1.6479357E-1,1.061685E0,5.006237E-1,3.5466373E-1,-4.770414E-1,4.4510505E-1,-4.7951412E-1,-9.0619713E-1,-2.5408113E-1,1.0623958E0,6.797934E-1,1.0432801E0,4.128942E-1,9.658405E-1,-2.6994362E-1,-4.261263E-1,6.0579175E-1,-7.5921464E-1,1.0357807E0,1.4042975E-1,-5.028983E-1,1.1330706E0,5.9585506E-1,1.772515E-1,9.908455E-1,1.8263528E-1,9.3766725E-1,-5.811007E-1,3.3479943E0,3.3189124E-1,2.9641485E0,-5.8032732E-2,-8.417027E-1,-6.253247E-1,-1.0183362E0,4.6903574E-1,-4.3702683E-1,6.7601323E-1,1.0705956E0,1.0515667E0,1.8487951E-1,1.0556878E0,3.6173978E-1,-2.246604E-2,1.0950233E0,1.0123163E0,5.799414E-1,3.0406776E-1,-1.0313643E0,1.0696343E0,-2.5855374E0,4.2930007E-1,1.1152E0,7.6227885E-1,-1.989119E0,1.0626845E0,-3.4657076E-1,-3.9818656E-1,4.178353E-1,-1.8738121E-1,-1.3589559E0,1.0934598E0,1.4921323E0,7.943297E-1,-1.167643E0,4.1852298E-1,-1.8775187E0,7.898875E-1,2.0292645E0,7.923762E-1,-8.4539115E-2,1.0836476E0,-1.1959054E0,-2.762441E-1,-1.1327554E0,-1.6007306E-1,6.7722076E-1,4.5528287E-1,-7.8580356E-1,-1.0139247E0,3.0612418E-1,-1.7909825E-1,-8.9080536E-1,-1.0441926E0,1.9503212E0,2.8595904E-1,1.5000414E0,-5.0326E-1,1.1347353E0],"categories":[],"categories_nodes":[],"categories_segments":[],"categories_sizes":[],"default_left":[1,1,1,1,1,1,1,0,1,1,1,1,1,1,1,1,1,1,1,1,1,1,1,1,1,1,1,1,1,1,1,1,1,1,1,1,1,1,1,1,1,1,1,1,1,1,1,1,0,1,0,1,1,1,1,1,1,0,0,0,0,0,0,0,0,0,0,0,0,0,0,0,0,0,0,0,0,0,0,0,0,0,0,0,0,0,0,0,0,0,0,0,0,0,0,0,0,0,0,0,0,0,0,0,0,0,0,0,0],"id":5,"left_children":[1,3,5,7,9,11,13,-1,15,17,19,21,23,25,27,29,31,33,35,37,39,41,43,45,47,49,51,53,55,57,59,61,63,65,67,69,71,73,75,77,79,81,83,85,87,89,91,93,-1,95,-1,97,99,101,103,105,107,-1,-1,-1,-1,-1,-1,-1,-1,-1,-1,-1,-1,-1,-1,-1,-1,-1,-1,-1,-1,-1,-1,-1,-1,-1,-1,-1,-1,-1,-1,-1,-1,-1,-1,-1,-1,-1,-1,-1,-1,-1,-1,-1,-1,-1,-1,-1,-1,-1,-1,-1,-1],"loss_changes":[2.2944294E3,3.1613812E2,7.0842017E2,4.2023926E0,1.2690615E2,1.3088864E2,3.5225293E2,0E0,9.655273E0,2.2896103E1,7.716811E1,2.4573639E1,1.0345425E2,1.6040735E2,2.0908081E2,1.9761963E0,1.1512951E1,1.2439529E1,3.2891495E1,1.4143223E1,5.7606377E1,3.785797E0,3.1003246E1,3.031668E1,1.19131355E2,9.037338E1,6.909923E1,1.2686182E2,7.451489E1,2.7902222E-1,3.9166555E0,7.452774E-2,2.0359371E1,2.8386383E0,4.2927437E0,1.210268E2,1.8005539E1,1.0851284E1,2.9408493E0,4.4063828E1,7.125064E1,7.080078E-3,7.904952E0,6.014108E1,1.466481E1,3.850795E1,2.279274E1,4.8032333E1,0E0,5.238104E1,0E0,7.896635E1,4.8454742E1,1.3697672E2,2.2397437E2,2.1069998E1,4.729402E1,0E0,0E0,0E0,0E0,0E0,0E0,0E0,0E0,0E0,0E0,0E0,0E0,0E0,0E0,0E0,0E0,0E0,0E0,0E0,0E0,0E0,0E0,0E0,0E0,0E0,0E0,0E0,0E0,0E0,0E0,0E0,0E0,0E0,0E0,0E0,0E0,0E0,0E0,0E0,0E0,0E0,0E0,0E0,0E0,0E0,0E0,0E0,0E0,0E0,0E0,0E0,0E0],"parents":[2147483647,0,0,1,1,2,2,3,3,4,4,5,5,6,6,8,8,9,9,10,10,11,11,12,12,13,13,14,14,15,15,16,16,17,17,18,18,19,19,20,20,21,21,22,22,23,23,24,24,25,25,26,26,27,27,28,28,29,29,30,30,31,31,32,32,33,33,34,34,35,35,36,36,37,37,38,38,39,39,40,40,41,41,42,42,43,43,44,44,45,45,46,46,47,47,49,49,51,51,52,52,53,53,54,54,55,55,56,56],"right_children":[2,4,6,8,10,12,14,-1,16,18,20,22,24,26,28,30,32,34,36,38,40,42,44,46,48,50,52,54,56,58,60,62,64,66,68,70,72,74,76,78,80,82,84,86,88,90,92,94,-1,96,-1,98,100,102,104,106,108,-1,-1,-1,-1,-1,-1,-1,-1,-1,-1,-1,-1,-1,-1,-1,-1,-1,-1,-1,-1,-1,-1,-1,-1,-1,-1,-1,-1,-1,-1,-1,-1,-1,-1,-1,-1,-1,-1,-1,-1,-1,-1,-1,-1,-1,-1,-1,-1,-1,-1,-1,-1],"split_conditions":[1.4282777E1,2.5628545E3,2.6653608E3,-2.2240965E1,-1.6915895E1,1.0337346E0,-5.3297343E0,3.2897782E-1,1.7879631E3,6.8409605E0,-4.3704124E1,2.006782E2,1.6719032E3,2.7028973E2,1.6043425E6,1.0810493E1,-1.2383473E0,1.3092449E4,-3.0194681E1,8.002616E3,3.096048E2,5.124543E1,4.0755847E2,1.411468E6,2.6652632E3,2.7015112E2,-1.7554111E1,3.699393E1,1.927307E2,-2.151353E1,8.069611E0,1.90297E6,5.3803078E1,8.865989E3,3.4169324E2,-4.991771E1,4.9057053E1,-5.9947037E1,1.135751E1,6.7281895E3,1.1475495E4,2.5752712E3,-1.8832015E0,2.3291548E3,9.30427E-1,3.997785E5,1.9801874E2,4.2578197E1,1.0043983E0,7.6920537E3,8.892446E-1,7.4966978E3,6.783691E2,2.7756458E2,3.83748E1,1.9024982E2,6.903598E2,2.0280398E-1,3.211787E-1,3.1547004E-1,5.5463854E-2,3.1670636E-1,1.0852194E-1,-6.739812E-3,3.28507E-1,3.036949E-1,1.7398243E-1,9.1220334E-2,-3.0940932E-1,3.208903E-1,-7.756613E-1,1.2879002E-1,3.3456004E-1,2.2868367E-1,-5.967357E-1,3.1880537E-1,-1.03971235E-1,-1.1945597E-1,1.253506E-1,-5.6214366E-2,-4.0768677E-1,3.2803798E-1,4.476397E-1,2.3829892E-1,-3.502929E-1,1.255569E-1,-5.632556E-1,2.3696625E-1,6.087794E-1,2.3771288E-1,-2.5361735E-2,3.2509428E-1,-3.5877165E-1,-8.287323E-2,-3.3982664E-1,-4.802192E-2,2.0316623E-1,1.3658486E-1,-2.3574108E-1,-3.0417743E-1,9.183726E-2,-5.372948E-2,-2.6724163E-1,-3.1325778E-1,5.8509636E-1,8.578771E-2,4.5001242E-1,-1.5097801E-1,3.404206E-1],"split_indices":[3,1,1,3,3,4,4,0,1,4,4,2,1,2,0,3,4,1,3,1,2,3,2,0,1,2,4,3,2,3,4,0,4,1,2,3,4,4,3,1,1,1,4,1,4,0,2,3,0,1,0,1,2,2,4,2,2,0,0,0,0,0,0,0,0,0,0,0,0,0,0,0,0,0,0,0,0,0,0,0,0,0,0,0,0,0,0,0,0,0,0,0,0,0,0,0,0,0,0,0,0,0,0,0,0,0,0,0,0],"split_type":[0,0,0,0,0,0,0,0,0,0,0,0,0,0,0,0,0,0,0,0,0,0,0,0,0,0,0,0,0,0,0,0,0,0,0,0,0,0,0,0,0,0,0,0,0,0,0,0,0,0,0,0,0,0,0,0,0,0,0,0,0,0,0,0,0,0,0,0,0,0,0,0,0,0,0,0,0,0,0,0,0,0,0,0,0,0,0,0,0,0,0,0,0,0,0,0,0,0,0,0,0,0,0,0,0,0,0,0,0],"sum_hessian":[8.376606E3,2.0723655E3,6.304241E3,1.0053525E3,1.0670131E3,9.252341E2,5.379007E3,5.480542E2,4.572983E2,4.383213E2,6.286918E2,3.2883182E2,5.964023E2,7.713046E2,4.6077026E3,3.3685184E2,1.20446465E2,1.9811244E2,2.4020883E2,7.216104E1,5.565307E2,1.3314961E2,1.9568222E2,3.0298807E2,2.9341418E2,3.1933725E2,4.5196738E2,4.0469873E3,5.6071515E2,3.1550854E2,2.1343275E1,5.297274E1,6.747373E1,1.900082E2,8.104245E0,3.561381E1,2.0459503E2,3.988545E0,6.817249E1,2.9279517E2,2.6373553E2,1.1421456E2,1.8935047E1,1.1872649E2,7.695573E1,2.3496852E2,6.801955E1,2.8646893E2,6.9452477E0,3.0668558E2,1.2651672E1,2.0942188E2,2.4254549E2,1.1566144E3,2.8903728E3,1.1289984E2,4.478153E2,8.290559E0,3.07218E2,1.15456085E1,9.797667E0,5.1486443E1,1.4862947E0,4.1777096E1,2.5696634E1,1.6813548E2,2.1872715E1,4.9632573E0,3.1409879E0,2.133816E1,1.4275651E1,1.5331844E2,5.127659E1,1.9528817E0,2.0356634E0,6.709786E1,1.0746373E0,9.938732E1,1.9340785E2,1.9359949E2,7.013606E1,1.06509995E2,7.7045655E0,1.751354E1,1.4215071E0,1.0696317E2,1.1763318E1,6.595297E1,1.1002758E1,7.099017E1,1.6397835E2,6.412423E1,3.8953197E0,1.8547313E2,1.0099581E2,1.2670921E2,1.7997636E2,1.2302417E2,8.639771E1,2.1100287E2,3.1542606E1,4.3206442E2,7.2455E2,2.8660583E3,2.4314503E1,9.695993E1,1.5939913E1,4.3036E2,1.7455326E1],"tree_param":{"num_deleted":"0","num_feature":"5","num_nodes":"109","size_leaf_vector":"0"}},{"base_weights":[-2.4312598E-1,3.8972774E-1,-5.746834E-1,8.914954E-1,3.852034E-2,9.8897636E-2,-6.8421495E-1,9.779591E-1,5.9278053E-1,4.8509267E-1,-2.3803352E-1,3.1706682E-1,-4.6568295E-1,-7.885017E-1,-1.6146195E-1,1.0171986E0,7.1711606E-1,9.608572E-1,3.427676E-1,9.710386E-1,3.3503374E-1,4.0469545E-1,-5.095913E-1,4.6050212E-1,-2.4439414E-1,-8.7233436E-1,-9.3714245E-2,-4.3262205E-1,-9.059597E-1,-3.5726154E-1,1.8653736E-1,1.064711E0,9.519821E-1,8.623486E-1,-8.373296E-3,1.0076041E0,1.6504705E-1,6.6655695E-1,-2.4943636E-1,1.0138078E0,-6.5730107E-1,-3.6784634E-2,6.6501194E-1,1.1412764E0,2.3475008E-2,1.9868778E-2,-9.4314885E-1,7.002132E-1,4.812826E-2,3.5809356E-1,-1.129803E0,2.612839E-1,-1.057597E0,1.345336E-1,-8.7624216E-1,5.6972444E-2,-7.9230756E-1,-9.267892E-1,1.6269102E0,6.40852E-1,-4.1526738E-1,5.820312E-2,8.6122864E-1,1.0110435E0,6.931686E-1,4.0914595E-1,1.0169343E0,8.701695E-1,-1.9414823E0,1.0296212E0,4.9292174E-1,-1.0927111E0,8.636992E-1,2.9508308E-1,1.0122101E0,-2.0091653E0,3.4826937E-1,1.2883582E0,7.968175E-1,-1.391601E0,6.0481596E-1,3.6072615E-1,-1.4308634E0,7.9112536E-1,-1.3107823E0,8.185995E-1,1.8296053E0,6.856274E-1,-1.048654E0,-8.791092E-2,2.3683763E0,-1.071568E0,-2.7095175E-1,7.455568E-1,-1.1255956E0,-1.4167771E0,3.6077642E-1,6.3829494E-1,-1.1452687E0,8.9581996E-1,-1.2257293E0,6.286069E-1,-5.6540346E-1,-1.0924822E0,7.3648095E-1,-1.7091464E-1,8.3653975E-1,-1.1941752E0,1.1219125E0,-1.3017103E-1,5.818567E0,-8.2712334E-1,1.1093372E0,-9.3986017E-1,2.2227812E0,2.0730238E0,1.103848E0,-8.8298756E-1,8.235066E-1,-1.490073E-1,-7.03995E-1,6.554023E-1,-3.0333477E-1,4.6611693E-2,2.985082E0],"categories":[],"categories_nodes":[],"categories_segments":[],"categories_sizes":[],"default_left":[1,1,1,1,1,1,1,1,1,1,1,1,1,1,1,1,1,1,1,1,1,1,1,1,1,1,1,1,1,1,1,0,1,1,1,1,1,1,1,1,1,1,1,1,1,1,1,1,1,1,1,1,1,1,1,1,1,1,1,1,1,1,1,0,0,0,0,0,0,0,0,0,0,0,0,0,0,0,0,0,0,0,0,0,0,0,0,0,0,0,0,0,0,0,0,0,0,0,0,0,0,0,0,0,0,0,0,0,0,0,0,0,0,0,0,0,0,0,0,0,0,0,0,0,0],"id":6,"left_children":[1,3,5,7,9,11,13,15,17,19,21,23,25,27,29,31,33,35,37,39,41,43,45,47,49,51,53,55,57,59,61,-1,63,65,67,69,71,73,75,77,79,81,83,85,87,89,91,93,95,97,99,101,103,105,107,109,111,113,115,117,119,121,123,-1,-1,-1,-1,-1,-1,-1,-1,-1,-1,-1,-1,-1,-1,-1,-1,-1,-1,-1,-1,-1,-1,-1,-1,-1,-1,-1,-1,-1,-1,-1,-1,-1,-1,-1,-1,-1,-1,-1,-1,-1,-1,-1,-1,-1,-1,-1,-1,-1,-1,-1,-1,-1,-1,-1,-1,-1,-1,-1,-1,-1,-1],"loss_changes":[1.4984814E3,4.326713E2,3.4579346E2,2.5531372E1,1.7863191E2,8.098567E1,2.1961206E2,7.27948E0,2.0787964E1,4.000952E1,1.5612584E2,3.828239E1,2.7648647E1,1.400625E2,4.5830246E1,1.0866089E0,1.1145229E1,3.2661743E0,2.6667812E1,9.718529E0,5.2064865E1,7.463502E1,1.4427751E2,3.731858E1,5.2200974E1,1.8644493E1,1.7419352E1,1.4721439E2,1.3474243E2,2.517007E1,2.0945526E1,0E0,3.8101807E0,5.7551804E0,3.331587E1,4.7779846E-1,6.493041E0,1.1209488E1,5.2850636E1,6.5421753E0,4.486915E0,1.11559685E2,5.7044785E1,1.8638435E1,1.2582726E2,7.207103E1,2.9536896E1,2.061625E1,6.462201E1,2.5390434E1,8.784561E0,4.329552E0,5.52195E0,1.6409378E1,1.5320419E1,3.8339737E2,3.281891E1,1.05231445E2,2.6029282E0,7.4123373E0,3.1193764E1,4.4417995E1,6.678146E1,0E0,0E0,0E0,0E0,0E0,0E0,0E0,0E0,0E0,0E0,0E0,0E0,0E0,0E0,0E0,0E0,0E0,0E0,0E0,0E0,0E0,0E0,0E0,0E0,0E0,0E0,0E0,0E0,0E0,0E0,0E0,0E0,0E0,0E0,0E0,0E0,0E0,0E0,0E0,0E0,0E0,0E0,0E0,0E0,0E0,0E0,0E0,0E0,0E0,0E0,0E0,0E0,0E0,0E0,0E0,0E0,0E0,0E0,0E0,0E0,0E0,0E0],"parents":[2147483647,0,0,1,1,2,2,3,3,4,4,5,5,6,6,7,7,8,8,9,9,10,10,11,11,12,12,13,13,14,14,15,15,16,16,17,17,18,18,19,19,20,20,21,21,22,22,23,23,24,24,25,25,26,26,27,27,28,28,29,29,30,30,32,32,33,33,34,34,35,35,36,36,37,37,38,38,39,39,40,40,41,41,42,42,43,43,44,44,45,45,46,46,47,47,48,48,49,49,50,50,51,51,52,52,53,53,54,54,55,55,56,56,57,57,58,58,59,59,60,60,61,61,62,62],"right_children":[2,4,6,8,10,12,14,16,18,20,22,24,26,28,30,32,34,36,38,40,42,44,46,48,50,52,54,56,58,60,62,-1,64,66,68,70,72,74,76,78,80,82,84,86,88,90,92,94,96,98,100,102,104,106,108,110,112,114,116,118,120,122,124,-1,-1,-1,-1,-1,-1,-1,-1,-1,-1,-1,-1,-1,-1,-1,-1,-1,-1,-1,-1,-1,-1,-1,-1,-1,-1,-1,-1,-1,-1,-1,-1,-1,-1,-1,-1,-1,-1,-1,-1,-1,-1,-1,-1,-1,-1,-1,-1,-1,-1,-1,-1,-1,-1,-1,-1,-1,-1,-1,-1,-1,-1],"split_conditions":[2.4405308E1,2.8562256E3,2.590502E3,1.0095806E1,6.703499E0,2.0558195E1,1.551793E6,2.1621777E3,-5.235627E0,2.2306409E2,2.2810992E2,4.9122208E1,3.0253012E1,3.6829117E1,1.823417E6,-2.2240965E1,3.492508E1,2.3259373E1,1.6750981E3,-2.2965212E0,4.1040967E2,2.708235E1,2.3260841E-1,2.597525E2,4.95161E0,3.74704E5,2.0541018E3,2.7756458E2,3.83748E1,1.6030496E2,3.1686874E1,3.194133E-1,1.8015406E3,5.54796E5,2.086556E2,-1.1683805E1,-1.1940411E1,1.5283986E3,3.2985992E1,4.878834E3,1.7747355E6,1.232962E1,1.9123934E4,1.3408918E1,1.8714969E2,2.1062002E-1,5.4634924E2,2.466598E3,3.048228E2,1.7571095E3,2.84893E5,1.6715525E3,5.0062965E1,1.9456226E3,5.1920494E1,2.7691083E2,5.10168E1,5.8031876E1,1.237789E4,6.883454E3,1.4085169E1,3.845175E1,4.422548E1,3.0331308E-1,2.0795058E-1,1.2274379E-1,3.050803E-1,2.6105088E-1,-5.824447E-1,3.0888638E-1,1.4787653E-1,-3.2781333E-1,2.5910977E-1,8.852492E-2,3.0366305E-1,-6.027496E-1,1.0448082E-1,3.8650748E-1,2.3904525E-1,-4.1748032E-1,1.814448E-1,1.0821785E-1,-4.2925903E-1,2.3733762E-1,-3.932347E-1,2.4557987E-1,5.4888165E-1,2.0568822E-1,-3.145962E-1,-2.6373276E-2,7.105129E-1,-3.214704E-1,-8.128553E-2,2.2366704E-1,-3.3767867E-1,-4.2503315E-1,1.0823293E-1,1.9148849E-1,-3.435806E-1,2.68746E-1,-3.6771882E-1,1.8858208E-1,-1.6962105E-1,-3.2774466E-1,2.209443E-1,-5.1274393E-2,2.5096193E-1,-3.5825258E-1,3.3657375E-1,-3.905131E-2,1.7455701E0,-2.4813701E-1,3.3280116E-1,-2.8195807E-1,6.6683435E-1,6.219072E-1,3.311544E-1,-2.6489627E-1,2.4705198E-1,-4.4702195E-2,-2.1119851E-1,1.966207E-1,-9.100044E-2,1.3983509E-2,8.955246E-1],"split_indices":[3,1,1,3,4,4,0,1,4,2,2,3,4,3,0,3,4,3,1,4,2,4,3,2,4,0,1,2,4,2,4,0,1,0,2,4,4,1,4,1,0,3,1,3,2,3,2,1,2,1,0,1,3,1,4,2,4,3,1,1,4,3,3,0,0,0,0,0,0,0,0,0,0,0,0,0,0,0,0,0,0,0,0,0,0,0,0,0,0,0,0,0,0,0,0,0,0,0,0,0,0,0,0,0,0,0,0,0,0,0,0,0,0,0,0,0,0,0,0,0,0,0,0,0,0],"split_type":[0,0,0,0,0,0,0,0,0,0,0,0,0,0,0,0,0,0,0,0,0,0,0,0,0,0,0,0,0,0,0,0,0,0,0,0,0,0,0,0,0,0,0,0,0,0,0,0,0,0,0,0,0,0,0,0,0,0,0,0,0,0,0,0,0,0,0,0,0,0,0,0,0,0,0,0,0,0,0,0,0,0,0,0,0,0,0,0,0,0,0,0,0,0,0,0,0,0,0,0,0,0,0,0,0,0,0,0,0,0,0,0,0,0,0,0,0,0,0,0,0,0,0,0,0],"sum_hessian":[7.1394287E3,2.4544226E3,4.685006E3,1.00996045E3,1.444462E3,6.5529083E2,4.0297153E3,7.8148413E2,2.2847632E2,5.5213464E2,8.9232745E2,4.729634E2,1.8232742E2,3.3590852E3,6.7062994E2,6.76775E2,1.04709145E2,9.1267E1,1.3720932E2,1.2897975E2,4.231549E2,2.648899E2,6.2743756E2,3.7686603E2,9.609739E1,8.64603E1,9.586713E1,8.34714E2,2.5243713E3,4.291467E2,2.4148326E2,3.82665E2,2.9411002E2,8.7086945E1,1.7622206E1,8.595194E1,5.315061E0,8.8626785E1,4.8582527E1,1.2604648E2,2.9332771E0,1.9938126E2,2.2377365E2,8.965938E1,1.752305E2,2.8290652E2,3.44531E2,2.3788596E2,1.3898007E2,5.7539474E1,3.855791E1,1.20873995E1,7.43729E1,7.486002E1,2.1007103E1,3.53873E2,4.8084103E2,2.50441E3,1.9961363E1,2.301839E1,4.0612833E2,2.0380367E2,3.7679592E1,2.3709767E2,5.7012344E1,2.3077312E1,6.400963E1,1.2493932E1,5.128275E0,8.146645E1,4.4854913E0,1.6966379E0,3.618423E0,4.3611332E1,4.5015457E1,1.1718923E1,3.6863605E1,5.346351E1,7.258297E1,1.7895336E0,1.1437436E0,1.5572011E2,4.366114E1,2.1091096E2,1.2862696E1,6.253384E1,2.7125542E1,1.0854997E2,6.668053E1,2.7141318E2,1.1493357E1,2.8876926E2,5.576176E1,2.326986E2,5.1873655E0,2.3823605E1,1.1515646E2,4.8984932E1,8.554544E0,1.3663733E0,3.7191536E1,8.534751E0,3.5526485E0,7.333793E1,1.0349679E0,5.2690514E1,2.216951E1,1.8470552E1,2.5365508E0,3.4368704E2,1.0185958E1,4.7275085E2,8.090185E0,2.494758E3,9.651835E0,9.173849E0,1.0787515E1,2.053381E0,2.096501E1,2.1207353E2,1.9405478E2,7.6547455E1,1.2725621E2,2.797251E1,9.707082E0],"tree_param":{"num_deleted":"0","num_feature":"5","num_nodes":"125","size_leaf_vector":"0"}},{"base_weights":[-2.0968612E-1,3.284407E-1,-4.931856E-1,8.2071626E-1,2.3940666E-2,-1.2654309E-1,-7.1073407E-1,9.249136E-1,4.9835578E-1,5.0688684E-1,-1.4972454E-1,6.929711E-1,-2.906771E-1,-7.40923E-1,8.1788087E-1,9.741553E-1,6.248064E-1,8.7542427E-1,2.709997E-1,7.564747E-2,6.499766E-1,3.0276716E-1,-3.97168E-1,1.152493E0,1.3974571E-1,-9.243662E-2,-9.6582395E-1,-1.6173959E-1,-8.221432E-1,-1.1960583E0,1.3928097E0,1.0361758E0,8.920307E-1,4.4514403E-1,1.150951E0,9.264327E-1,1.362741E-1,5.529836E-1,-1.9688725E-1,2.9336187E-1,-1.4314152E0,6.963727E-1,-3.116802E-1,1.9627245E-1,1.3513138E0,2.1112858E-1,-6.7433554E-1,8.3133537E-1,2.7224495E0,9.3901634E-1,-5.235211E-1,-4.5523894E-1,4.573776E-1,-1.030555E0,-8.820409E-3,-2.806361E-1,1.2465435E0,-9.958729E-1,-5.5451083E-1,9.6587485E-1,5.9742635E-1,6.14575E-1,-1.3445919E0,9.533629E-1,4.0252593E-1,6.710549E-1,-1.1367671E0,2.1155871E-1,8.9411885E-1,-1.6374131E0,2.4859838E-1,6.5513635E-1,5.7018377E-2,7.102226E-1,-1.9032767E0,8.494115E-1,4.388337E-1,1.0940073E0,-1.0220293E0,4.0944418E-1,-9.237292E-1,-9.761044E-2,1.4141262E0,-6.7934155E-1,4.354948E-1,-8.596856E-1,-6.993302E-2,9.253215E-1,-1.1737225E0,3.100456E0,1.6329647E0,1.3940592E0,3.1562915E-1,-1.3657329E0,8.447105E-1,1.4948465E-1,-8.103463E-1,5.7873416E0,3.0286345E-1,-1.062184E0,-1.618131E-2,1.2835437E0,-1.1824517E0,-1.5102586E-1,-1.166774E0,1.1482745E0,-1.0014133E0,2.537059E-1,-8.2549644E-1],"categories":[],"categories_nodes":[],"categories_segments":[],"categories_sizes":[],"default_left":[1,1,1,1,1,1,1,1,1,1,1,1,1,1,1,1,1,1,1,1,1,1,1,1,1,1,1,1,1,0,0,0,1,1,0,1,1,1,1,1,1,1,1,1,1,1,1,1,1,1,1,1,1,1,1,1,0,1,1,0,0,0,0,0,0,0,0,0,0,0,0,0,0,0,0,0,0,0,0,0,0,0,0,0,0,0,0,0,0,0,0,0,0,0,0,0,0,0,0,0,0,0,0,0,0,0,0,0,0],"id":7,"left_children":[1,3,5,7,9,11,13,15,17,19,21,23,25,27,29,31,33,35,37,39,41,43,45,47,49,51,53,55,57,-1,-1,-1,59,61,-1,63,65,67,69,71,73,75,77,79,81,83,85,87,89,91,93,95,97,99,101,103,-1,105,107,-1,-1,-1,-1,-1,-1,-1,-1,-1,-1,-1,-1,-1,-1,-1,-1,-1,-1,-1,-1,-1,-1,-1,-1,-1,-1,-1,-1,-1,-1,-1,-1,-1,-1,-1,-1,-1,-1,-1,-1,-1,-1,-1,-1,-1,-1,-1,-1,-1,-1],"loss_changes":[9.3475854E2,3.1692554E2,3.19976E2,2.667981E1,1.0972741E2,2.0136557E2,1.1681433E2,8.39801E0,1.686977E1,2.1301956E1,1.0787305E2,6.335398E1,1.667692E2,1.1605762E2,5.868495E1,1.7333069E0,7.8719215E0,2.6868553E0,1.6724407E1,2.9076496E1,1.1803024E1,3.778872E1,1.05109726E2,6.6480896E1,6.1192245E1,1.9266493E2,1.7513824E1,5.142153E1,1.0015491E2,0E0,0E0,0E0,4.4633636E0,2.137033E1,0E0,5.985451E-1,4.840156E0,8.993618E0,3.1271065E1,6.558685E0,1.2664543E1,9.403084E0,1.3742006E1,7.451976E1,2.98217E0,3.9383415E1,4.788034E1,2.2687347E1,4.291687E0,1.4391537E1,7.400076E1,1.25050804E2,3.1453745E2,8.482941E0,3.0228985E1,3.222194E1,0E0,1.6737549E1,1.8742801E2,0E0,0E0,0E0,0E0,0E0,0E0,0E0,0E0,0E0,0E0,0E0,0E0,0E0,0E0,0E0,0E0,0E0,0E0,0E0,0E0,0E0,0E0,0E0,0E0,0E0,0E0,0E0,0E0,0E0,0E0,0E0,0E0,0E0,0E0,0E0,0E0,0E0,0E0,0E0,0E0,0E0,0E0,0E0,0E0,0E0,0E0,0E0,0E0,0E0,0E0],"parents":[2147483647,0,0,1,1,2,2,3,3,4,4,5,5,6,6,7,7,8,8,9,9,10,10,11,11,12,12,13,13,14,14,15,15,16,16,17,17,18,18,19,19,20,20,21,21,22,22,23,23,24,24,25,25,26,26,27,27,28,28,32,32,33,33,35,35,36,36,37,37,38,38,39,39,40,40,41,41,42,42,43,43,44,44,45,45,46,46,47,47,48,48,49,49,50,50,51,51,52,52,53,53,54,54,55,55,57,57,58,58],"right_children":[2,4,6,8,10,12,14,16,18,20,22,24,26,28,30,32,34,36,38,40,42,44,46,48,50,52,54,56,58,-1,-1,-1,60,62,-1,64,66,68,70,72,74,76,78,80,82,84,86,88,90,92,94,96,98,100,102,104,-1,106,108,-1,-1,-1,-1,-1,-1,-1,-1,-1,-1,-1,-1,-1,-1,-1,-1,-1,-1,-1,-1,-1,-1,-1,-1,-1,-1,-1,-1,-1,-1,-1,-1,-1,-1,-1,-1,-1,-1,-1,-1,-1,-1,-1,-1,-1,-1,-1,-1,-1,-1],"split_conditions":[2.4405308E1,2.8562256E3,9.334756E0,1.0095806E1,-1.6793947E1,1.9947801E2,4.8567986E1,2.1621777E3,-5.235627E0,9.02819E5,2.1912575E0,3.7988022E3,1.129864E4,2.465103E3,2.8290386E1,-2.2240965E1,2.84213E3,2.3259373E1,1.6750981E3,8.847322E3,1.5354541E4,8.611759E2,2.2618527E2,3.7937488E3,1.810294E2,6.9903594E3,1.9287405E6,2.4640457E3,1.0063771E4,-3.588175E-1,4.1784295E-1,3.1085277E-1,1.8015406E3,2.634284E3,3.4528533E-1,-1.1683805E1,1.6973341E3,1.5198411E3,3.2985992E1,6.6959915E0,2.1426584E2,2.623089E1,1.8039658E2,4.6758136E2,-1.823523E1,1.8323697E2,5.0989758E2,3.2800762E3,1.6042785E6,4.9067886E1,1.7299518E4,2.9530852E3,6.9920137E3,5.4658413E1,1.4686371E4,2.1486206E3,3.7396306E-1,1.4384021E2,3.5181625E1,2.8976247E-1,1.7922792E-1,1.8437251E-1,-4.0337756E-1,2.8600886E-1,1.2075778E-1,2.0131648E-1,-3.4103015E-1,6.3467614E-2,2.6823565E-1,-4.9122396E-1,7.4579515E-2,1.965409E-1,1.7105514E-2,2.1306679E-1,-5.7098305E-1,2.5482345E-1,1.3165012E-1,3.282022E-1,-3.066088E-1,1.2283326E-1,-2.7711877E-1,-2.9283132E-2,4.2423788E-1,-2.0380248E-1,1.3064845E-1,-2.579057E-1,-2.0979907E-2,2.7759647E-1,-3.5211676E-1,9.3013686E-1,4.8988944E-1,4.1821778E-1,9.468875E-2,-4.0971988E-1,2.5341317E-1,4.4845395E-2,-2.431039E-1,1.7362026E0,9.085904E-2,-3.186552E-1,-4.854393E-3,3.8506314E-1,-3.5473552E-1,-4.530776E-2,-3.500322E-1,3.4448236E-1,-3.00424E-1,7.611177E-2,-2.4764894E-1],"split_indices":[3,1,4,3,3,2,4,1,4,0,4,1,1,1,3,3,1,3,1,1,1,2,2,1,2,1,0,1,1,0,0,0,1,1,0,4,1,1,4,4,2,4,2,2,4,2,2,1,0,3,1,1,1,3,1,1,0,2,3,0,0,0,0,0,0,0,0,0,0,0,0,0,0,0,0,0,0,0,0,0,0,0,0,0,0,0,0,0,0,0,0,0,0,0,0,0,0,0,0,0,0,0,0,0,0,0,0,0,0],"split_type":[0,0,0,0,0,0,0,0,0,0,0,0,0,0,0,0,0,0,0,0,0,0,0,0,0,0,0,0,0,0,0,0,0,0,0,0,0,0,0,0,0,0,0,0,0,0,0,0,0,0,0,0,0,0,0,0,0,0,0,0,0,0,0,0,0,0,0,0,0,0,0,0,0,0,0,0,0,0,0,0,0,0,0,0,0,0,0,0,0,0,0,0,0,0,0,0,0,0,0,0,0,0,0,0,0,0,0,0,0],"sum_hessian":[6.125145E3,2.1134067E3,4.0117383E3,8.0702295E2,1.3063838E3,1.4945311E3,2.5172073E3,6.08475E2,1.9854793E2,3.450141E2,9.613697E2,2.488436E2,1.2456875E3,2.4689624E3,4.824472E1,5.207793E2,8.769567E1,7.3612175E1,1.24935745E2,8.633852E1,2.586756E2,3.3978766E2,6.2158203E2,1.3534209E2,1.1350152E2,9.638216E2,2.818659E2,3.04015E2,2.1649475E3,1.0474136E1,3.7770588E1,2.9008768E2,2.3069165E2,6.674898E1,2.0946697E1,6.862314E1,4.989035E0,7.784102E1,4.709473E1,7.61439E1,1.0194614E1,2.470331E2,1.1642497E1,3.09537E2,3.0250668E1,1.9464185E2,4.269402E2,1.1362745E2,2.1714636E1,5.128487E1,6.2216644E1,5.807668E2,3.830548E2,2.6393658E2,1.7929344E1,2.8108472E2,2.2930296E1,1.3111271E3,8.538203E2,1.8263474E2,4.8056915E1,6.1576275E1,5.172701E0,6.448855E1,4.1345944E0,3.8461936E0,1.1428413E0,3.971373E1,3.812729E1,1.0492034E1,3.6602695E1,2.9387718E1,4.675618E1,1.7494111E0,8.445203E0,1.5351242E2,9.3520676E1,3.7270527E0,7.9154444E0,2.6057562E2,4.896136E1,1.2338908E0,2.9016775E1,3.8764507E1,1.5587733E2,3.264167E2,1.0052349E2,1.090541E2,4.5733542E0,1.4750884E1,6.9637513E0,2.8930628E1,2.2354242E1,3.851231E1,2.3704334E1,2.1507976E2,3.6568707E2,9.764751E0,3.7329004E2,2.5590996E2,8.026612E0,8.48847E0,9.440875E0,2.4623917E2,3.4845547E1,2.8476334E0,1.3082794E3,2.1440863E2,6.394117E2],"tree_param":{"num_deleted":"0","num_feature":"5","num_nodes":"109","size_leaf_vector":"0"}},{"base_weights":[-1.8032728E-1,1.2307347E-1,-5.605395E-1,7.233377E-1,-4.4202987E-2,3.9184666E-1,-6.3300604E-1,9.382645E-1,3.9796185E-1,2.0155364E-1,-3.00962E-1,8.8379145E-1,-3.2698266E-2,-6.637122E-1,1.5703331E0,1.0210294E0,8.4865665E-1,8.4935254E-1,1.76454E-1,5.3847283E-1,-1.43411E-1,6.896536E-2,-6.050826E-1,1.070877E0,-5.1525766E-1,-4.859703E-1,1.3915368E0,-6.911006E-1,1.4750652E0,1.118206E0,2.0089421E0,9.77953E-1,6.974198E-1,9.21313E-1,2.7497682E-1,3.7317216E-1,-4.1097486E-1,4.002594E-1,2.6250732E0,-2.6916766E-1,1.6623348E0,-1.3172907E0,2.1493998E-1,1.908713E-1,-8.7473667E-1,6.562099E-1,1.2722899E0,8.1644976E-1,-1.2618896E0,-1.0936979E0,6.1051327E-1,2.6253543E0,-1.0707119E0,-1.792451E-1,-7.9175615E-1,2.3585026E0,8.952082E-1,-2.696931E-1,9.9702924E-1,7.5751585E-1,-3.2691842E-1,3.1304526E-1,9.522397E-1,8.2467127E-1,-1.1651855E0,7.538067E-1,4.7261465E-2,-1.2426915E0,1.0356306E0,2.4998932E-1,1.4241385E0,2.2473489E-1,5.159392E0,2.3653973E-2,-8.3503366E-1,9.209016E-1,4.327625E0,-1.5151969E-1,-1.5341923E0,3.0976748E-1,-1.2004442E0,-3.0814594E-1,8.530163E-1,-1.0756588E0,-4.683166E-1,9.887659E-1,-1.0327063E0,1.4814059E0,7.432169E-1,4.7819656E-1,-1.2667489E0,2.9683063E0,-4.4770394E-2,-8.351306E-1,2.9325554E0,-1.1510837E0,-2.652505E-1,-2.4900517E-1,9.45186E0,-8.642494E-1,-1.8779072E-1,8.615765E-1,2.9239185E0,1.1245917E0,4.3037215E-1],"categories":[],"categories_nodes":[],"categories_segments":[],"categories_sizes":[],"default_left":[1,1,1,1,1,1,1,1,1,1,1,1,1,1,1,0,1,1,1,1,1,1,1,1,1,1,1,1,1,0,0,1,1,1,1,1,1,1,1,1,1,1,1,1,1,1,1,0,0,1,1,1,1,1,1,1,1,0,0,0,0,0,0,0,0,0,0,0,0,0,0,0,0,0,0,0,0,0,0,0,0,0,0,0,0,0,0,0,0,0,0,0,0,0,0,0,0,0,0,0,0,0,0,0,0],"id":8,"left_children":[1,3,5,7,9,11,13,15,17,19,21,23,25,27,29,-1,31,33,35,37,39,41,43,45,47,49,51,53,55,-1,-1,57,59,61,63,65,67,69,71,73,75,77,79,81,83,85,87,-1,-1,89,91,93,95,97,99,101,103,-1,-1,-1,-1,-1,-1,-1,-1,-1,-1,-1,-1,-1,-1,-1,-1,-1,-1,-1,-1,-1,-1,-1,-1,-1,-1,-1,-1,-1,-1,-1,-1,-1,-1,-1,-1,-1,-1,-1,-1,-1,-1,-1,-1,-1,-1,-1,-1],"loss_changes":[6.147363E2,2.9768527E2,1.6347351E2,4.481024E1,1.4640698E2,3.508426E1,1.4976257E2,2.0137024E0,2.572184E1,1.3787643E2,1.276922E2,2.0912014E1,5.946138E1,1.2805536E2,3.8039932E0,0E0,3.0800781E0,3.2563934E0,2.0357159E1,1.7199165E2,1.3365674E2,1.0405911E2,1.3384254E2,4.9227066E0,1.08243065E1,4.719129E1,7.0383575E1,1.1021289E2,1.2098522E1,0E0,0E0,2.6783066E0,5.920845E0,1.1134491E0,9.573651E0,1.6277308E1,5.4631798E1,8.640797E1,2.2449919E2,9.103328E1,7.176437E1,1.2156952E1,6.2760857E1,5.2609806E1,3.7499237E1,1.4839356E1,3.914711E0,0E0,0E0,1.2922272E1,3.9590923E1,1.8509178E1,2.2132778E-1,2.3971216E2,7.819495E1,6.2666283E0,1.473527E0,0E0,0E0,0E0,0E0,0E0,0E0,0E0,0E0,0E0,0E0,0E0,0E0,0E0,0E0,0E0,0E0,0E0,0E0,0E0,0E0,0E0,0E0,0E0,0E0,0E0,0E0,0E0,0E0,0E0,0E0,0E0,0E0,0E0,0E0,0E0,0E0,0E0,0E0,0E0,0E0,0E0,0E0,0E0,0E0,0E0,0E0,0E0,0E0],"parents":[2147483647,0,0,1,1,2,2,3,3,4,4,5,5,6,6,7,7,8,8,9,9,10,10,11,11,12,12,13,13,14,14,16,16,17,17,18,18,19,19,20,20,21,21,22,22,23,23,24,24,25,25,26,26,27,27,28,28,31,31,32,32,33,33,34,34,35,35,36,36,37,37,38,38,39,39,40,40,41,41,42,42,43,43,44,44,45,45,46,46,49,49,50,50,51,51,52,52,53,53,54,54,55,55,56,56],"right_children":[2,4,6,8,10,12,14,16,18,20,22,24,26,28,30,-1,32,34,36,38,40,42,44,46,48,50,52,54,56,-1,-1,58,60,62,64,66,68,70,72,74,76,78,80,82,84,86,88,-1,-1,90,92,94,96,98,100,102,104,-1,-1,-1,-1,-1,-1,-1,-1,-1,-1,-1,-1,-1,-1,-1,-1,-1,-1,-1,-1,-1,-1,-1,-1,-1,-1,-1,-1,-1,-1,-1,-1,-1,-1,-1,-1,-1,-1,-1,-1,-1,-1,-1,-1,-1,-1,-1,-1],"split_conditions":[3.7113483E1,2.0837705E3,-1.7537632E1,1.0810493E1,2.9676855E2,2.228728E2,3.83748E1,2.0042224E2,-5.235627E0,2.2848255E1,8.684202E0,-2.3735237E1,-1.8833134E1,5.6028263E1,1.7936559E2,3.063088E-1,1.9730227E1,1.8726642E3,1.6733987E3,2.1332333E1,2.9079822E2,3.3660587E2,-6.1818495E0,9.737539E3,1.4927698E3,4.4398895E2,4.1667038E1,2.909999E3,-5.541358E0,3.3546183E-1,6.0268265E-1,2.097297E2,9.26819E5,1.11948E5,2.751871E1,1.9552144E2,2.051489E3,2.2732977E4,1.4026469E4,2.4365261E1,2.813542E1,-9.964032E0,1.9104215E4,4.475603E1,4.9638318E2,1.8171882E3,1.4839217E4,2.4493493E-1,-3.785669E-1,1.8289551E3,4.454638E2,7.3793477E3,5.3899603E2,2.9095754E3,1.695553E6,2.0973691E2,2.207276E3,-8.090793E-2,2.9910877E-1,2.2725476E-1,-9.807553E-2,9.3913585E-2,2.8567192E-1,2.4740139E-1,-3.4955564E-1,2.2614202E-1,1.417844E-2,-3.7280747E-1,3.1068918E-1,7.49968E-2,4.272416E-1,6.742047E-2,1.5478176E0,7.0961923E-3,-2.505101E-1,2.7627048E-1,1.2982875E0,-4.5455907E-2,-4.602577E-1,9.293025E-2,-3.601333E-1,-9.244379E-2,2.559049E-1,-3.2269764E-1,-1.4049499E-1,2.966298E-1,-3.098119E-1,4.4442177E-1,2.2296508E-1,1.4345898E-1,-3.800247E-1,8.904919E-1,-1.3431119E-2,-2.5053918E-1,8.7976664E-1,-3.453251E-1,-7.957515E-2,-7.4701555E-2,2.8355582E0,-2.5927484E-1,-5.633722E-2,2.5847295E-1,8.7717557E-1,3.3737752E-1,1.2911165E-1],"split_indices":[3,1,4,3,2,2,4,2,4,4,4,4,4,3,2,0,4,1,1,4,2,2,3,1,1,2,3,1,4,0,0,2,0,0,3,2,1,1,1,3,3,3,1,4,2,1,1,0,0,1,2,1,2,1,0,2,1,0,0,0,0,0,0,0,0,0,0,0,0,0,0,0,0,0,0,0,0,0,0,0,0,0,0,0,0,0,0,0,0,0,0,0,0,0,0,0,0,0,0,0,0,0,0,0,0],"split_type":[0,0,0,0,0,0,0,0,0,0,0,0,0,0,0,0,0,0,0,0,0,0,0,0,0,0,0,0,0,0,0,0,0,0,0,0,0,0,0,0,0,0,0,0,0,0,0,0,0,0,0,0,0,0,0,0,0,0,0,0,0,0,0,0,0,0,0,0,0,0,0,0,0,0,0,0,0,0,0,0,0,0,0,0,0,0,0,0,0,0,0,0,0,0,0,0,0,0,0,0,0,0,0,0,0],"sum_hessian":[5.3274077E3,2.9633765E3,2.3640315E3,6.451085E2,2.3182678E3,1.6684732E2,2.197184E3,3.8735675E2,2.577518E2,1.1846226E3,1.1336454E3,7.678748E1,9.0059845E1,2.1676738E3,2.9510307E1,1.9596358E2,1.9139317E2,8.391489E1,1.738369E2,5.990161E2,5.8560645E2,5.118331E2,6.2181226E2,6.7937256E1,8.85023E0,6.881713E1,2.124271E1,2.1409346E3,2.6739176E1,1.6279009E1,1.3231298E1,1.0023407E2,9.11591E1,7.403537E1,9.879511E0,1.3049985E2,4.333705E1,5.6292084E2,3.609525E1,5.4827423E2,3.7332256E1,4.799756E1,4.6383554E2,1.5742467E2,4.6438757E2,2.3602554E1,4.4334698E1,3.145803E0,5.704427E0,4.427834E1,2.4538794E1,1.410736E1,7.135351E0,3.5228235E2,1.7886523E3,9.38038E0,1.7358797E1,1.3116324E0,9.892244E1,8.6353386E1,4.8057146E0,4.1202583E0,6.9915115E1,7.4596276E0,2.4198835E0,5.9590527E1,7.0909325E1,2.7606075E1,1.5730977E1,4.9196198E2,7.095886E1,1.9096752E1,1.6998497E1,3.619383E2,1.863359E2,3.026001E1,7.072245E0,7.7958975E0,4.020166E1,4.35443E2,2.8392546E1,9.007523E1,6.734944E1,3.09656E2,1.5473155E2,2.0066013E1,3.5365422E0,3.0485363E1,1.3849336E1,4.21633E0,4.0062008E1,4.569033E0,1.996976E1,1.0101343E0,1.3097225E1,6.097793E0,1.0375582E0,3.507162E2,1.5661633E0,1.5965851E3,1.920672E2,3.2636724E0,6.1167073E0,1.0672759E1,6.686038E0],"tree_param":{"num_deleted":"0","num_feature":"5","num_nodes":"105","size_leaf_vector":"0"}},{"base_weights":[-1.5385598E-1,4.562495E-1,-2.8779534E-1,9.0489095E-1,2.1772803E-1,2.567694E-4,-4.8719615E-1,9.8793036E-1,7.5392574E-1,-2.7588397E-1,3.5270923E-1,6.3189E-1,-1.1521275E-1,-2.5416747E-1,-7.5644684E-1,-4.156873E-1,8.002303E-1,3.753631E-1,-6.497911E-1,4.2819262E-1,-4.4732252E-1,9.7082466E-1,1.6064781E-1,9.954315E-2,-5.082144E-1,-3.080373E-1,1.7673464E0,-7.8825784E-1,6.5284806E-1,7.033662E-1,-1.5314993E0,8.5865045E-1,3.5898447E-2,6.659834E-1,-6.470888E-1,-9.3388754E-1,1.2826785E-1,3.8772833E-1,1.5997496E0,1.15299E0,-8.153623E-1,7.605423E-1,1.9388012E0,-4.457778E-1,8.132327E-1,-4.940383E-3,7.3854107E-1,-6.6276E-1,1.7471228E0,1.0820727E-1,-4.9028403E-1,-1.0848058E0,2.2053475E0,-8.6074156E-1,-2.4361236E-1,9.681971E-1,-8.5846174E-1,9.73015E-1,7.379727E-1,8.577698E-1,-1.0095961E0,-1.2740004E-1,7.5521994E-1,6.0116607E-1,-1.6612729E0,-1.0865154E-1,-1.1660705E0,3.341494E-1,-1.2460922E0,9.031632E-1,2.7928957E-1,-1.2539835E0,6.0852176E-1,1.010285E0,1.712947E-1,1.1559103E0,-1.3436117E0,9.9594784E-1,-1.0449601E0,1.6686259E-1,-6.352701E-1,1.127418E0,-1.0877914E0,6.281581E-1,-7.7771866E-1,5.2040477E0,-4.752224E-1,-2.737218E-2,7.914041E-1,-7.676077E-1,-7.651243E-3,1.5465208E0,3.3110526E0,1.14894375E-1,-9.0998894E-1,1.5994951E-1,-1.0982399E0,-4.9140868E-1,1.1228273E0],"categories":[],"categories_nodes":[],"categories_segments":[],"categories_sizes":[],"default_left":[1,1,1,1,1,1,1,0,1,1,1,1,1,1,1,1,1,1,1,1,1,1,1,1,1,1,1,1,1,0,0,1,1,1,1,1,1,1,0,0,1,1,0,1,1,1,1,1,1,1,1,0,1,1,1,1,0,0,0,0,0,0,0,0,0,0,0,0,0,0,0,0,0,0,0,0,0,0,0,0,0,0,0,0,0,0,0,0,0,0,0,0,0,0,0,0,0,0,0],"id":9,"left_children":[1,3,5,7,9,11,13,-1,15,17,19,21,23,25,27,29,31,33,35,37,39,41,43,45,47,49,51,53,55,-1,-1,57,59,61,63,65,67,69,-1,-1,71,73,-1,75,77,79,81,83,85,87,89,-1,91,93,95,97,-1,-1,-1,-1,-1,-1,-1,-1,-1,-1,-1,-1,-1,-1,-1,-1,-1,-1,-1,-1,-1,-1,-1,-1,-1,-1,-1,-1,-1,-1,-1,-1,-1,-1,-1,-1,-1,-1,-1,-1,-1,-1,-1],"loss_changes":[3.8751843E2,9.1164825E1,2.2330814E2,2.966278E0,3.7324585E1,1.1613899E2,1.4395648E2,0E0,6.2507057E0,2.9596191E1,2.6713844E1,3.9153114E1,1.1367469E2,1.348238E2,4.827655E1,7.095045E0,4.6779175E0,1.368328E1,1.7127224E1,1.8429245E1,2.3529953E1,2.7623428E1,4.1582584E1,5.8181705E1,1.6702621E2,9.1229256E1,4.2561417E1,4.09386E1,1.2299869E1,0E0,0E0,6.3339233E-1,8.19674E0,2.5897942E0,1.413707E1,1.069569E1,6.4882927E0,2.1531548E1,0E0,0E0,2.0604029E1,1.7351715E1,0E0,8.012022E1,1.8194584E1,8.131711E1,8.820357E1,6.668846E1,2.390398E2,3.3998726E1,1.1190225E2,0E0,1.5424942E1,4.4283997E1,4.2879692E1,5.151451E0,0E0,0E0,0E0,0E0,0E0,0E0,0E0,0E0,0E0,0E0,0E0,0E0,0E0,0E0,0E0,0E0,0E0,0E0,0E0,0E0,0E0,0E0,0E0,0E0,0E0,0E0,0E0,0E0,0E0,0E0,0E0,0E0,0E0,0E0,0E0,0E0,0E0,0E0,0E0,0E0,0E0,0E0,0E0],"parents":[2147483647,0,0,1,1,2,2,3,3,4,4,5,5,6,6,8,8,9,9,10,10,11,11,12,12,13,13,14,14,15,15,16,16,17,17,18,18,19,19,20,20,21,21,22,22,23,23,24,24,25,25,26,26,27,27,28,28,31,31,32,32,33,33,34,34,35,35,36,36,37,37,40,40,41,41,43,43,44,44,45,45,46,46,47,47,48,48,49,49,50,50,52,52,53,53,54,54,55,55],"right_children":[2,4,6,8,10,12,14,-1,16,18,20,22,24,26,28,30,32,34,36,38,40,42,44,46,48,50,52,54,56,-1,-1,58,60,62,64,66,68,70,-1,-1,72,74,-1,76,78,80,82,84,86,88,90,-1,92,94,96,98,-1,-1,-1,-1,-1,-1,-1,-1,-1,-1,-1,-1,-1,-1,-1,-1,-1,-1,-1,-1,-1,-1,-1,-1,-1,-1,-1,-1,-1,-1,-1,-1,-1,-1,-1,-1,-1,-1,-1,-1,-1,-1,-1],"split_conditions":[2.3260841E-1,2.3301191E3,9.334756E0,-2.2240965E1,7.84794E5,1.9947801E2,2.7753882E2,2.9637912E-1,-2.151353E1,2.5217294E2,1.5486406E4,3.7988022E3,4.1801544E1,2.7696793E2,4.9986378E1,1.9271416E2,2.0557812E3,3.535209E1,5.8767676E2,2.1392038E-1,1.7461746E2,3.7937488E3,1.5784873E4,5.8915973E0,6.7957776E2,2.909999E3,2.0530125E4,1.628443E6,9.249383E3,2.1100987E-1,-4.594498E-1,2.1988272E2,-1.7745066E1,3.0866406E3,1.9034625E2,-3.1605919E1,-4.306881E0,-2.6151608E1,4.799249E-1,3.4589702E-1,3.190692E4,4.9124172E1,5.8164036E-1,1.7365663E2,1.6085227E0,-2.9685597E0,4.3366174E2,-2.5421143E1,6.908626E2,1.534248E6,1.0490551E4,-3.2544178E-1,1.529535E6,1.6387432E3,1.3823355E4,4.0874667E0,-2.5753853E-1,2.919045E-1,2.2139181E-1,2.5733095E-1,-3.0287886E-1,-3.8220014E-2,2.2656599E-1,1.8034983E-1,-4.9838188E-1,-3.2595463E-2,-3.4982115E-1,1.0024482E-1,-3.7382767E-1,2.7094898E-1,8.3786875E-2,-3.7619507E-1,1.8255654E-1,3.030855E-1,5.1388413E-2,3.467731E-1,-4.0308353E-1,2.9878438E-1,-3.1348807E-1,5.005878E-2,-1.9058104E-1,3.3822542E-1,-3.2633746E-1,1.8844743E-1,-2.333156E-1,1.5612143E0,-1.4256673E-1,-8.211655E-3,2.3742124E-1,-2.3028232E-1,-2.295373E-3,4.6395627E-1,9.933158E-1,3.4468316E-2,-2.729967E-1,4.7984857E-2,-3.2947198E-1,-1.4742261E-1,3.368482E-1],"split_indices":[3,1,4,3,0,2,2,0,3,2,1,1,3,2,4,2,1,4,2,3,2,1,1,4,2,1,1,0,1,0,0,2,4,1,2,3,3,4,0,0,1,3,0,2,4,4,2,4,2,0,1,0,0,1,1,3,0,0,0,0,0,0,0,0,0,0,0,0,0,0,0,0,0,0,0,0,0,0,0,0,0,0,0,0,0,0,0,0,0,0,0,0,0,0,0,0,0,0,0],"split_type":[0,0,0,0,0,0,0,0,0,0,0,0,0,0,0,0,0,0,0,0,0,0,0,0,0,0,0,0,0,0,0,0,0,0,0,0,0,0,0,0,0,0,0,0,0,0,0,0,0,0,0,0,0,0,0,0,0,0,0,0,0,0,0,0,0,0,0,0,0,0,0,0,0,0,0,0,0,0,0,0,0,0,0,0,0,0,0,0,0,0,0,0,0,0,0,0,0,0,0],"sum_hessian":[4.7395854E3,8.5276416E2,3.8868215E3,2.9503366E2,5.5773047E2,1.5903783E3,2.2964434E3,1.8676065E2,1.08273E2,1.1954032E2,4.381902E2,2.4511192E2,1.3452664E3,1.232068E3,1.0643754E3,3.819465E0,1.0445354E2,4.359883E1,7.594149E1,4.008359E2,3.735427E1,1.4195357E2,1.03158356E2,8.703888E2,4.7487753E2,1.2009133E3,3.115463E1,1.0413112E3,2.3064095E1,2.0915132E0,1.7279518E0,9.6922104E1,7.531436E0,3.4220646E1,9.378185E0,5.5482586E1,2.0458904E1,3.887402E2,1.2095703E1,6.585664E0,3.0768608E1,1.1808631E2,2.3867262E1,5.3634495E1,4.952386E1,7.489234E2,1.2146535E2,4.4508453E2,2.9793015E1,3.6581415E2,8.350992E2,3.950868E0,2.7203764E1,9.184938E2,1.2281745E2,1.9379704E1,3.6843925E0,4.61364E1,5.07857E1,4.317204E0,3.2142317E0,3.416611E0,3.0804033E1,4.3865156E0,4.9916697E0,1.2504922E1,4.2977665E1,1.8451681E1,2.0072246E0,6.629512E1,3.224451E2,2.36138E1,7.1548066E0,8.2433655E1,3.5652657E1,1.916238E1,3.4472115E1,4.551265E1,4.0112114E0,5.890948E2,1.5982867E2,1.0045778E2,2.1007568E1,3.602955E1,4.0905496E2,1.1133237E1,1.8659777E1,3.060407E2,5.9773415E1,5.2997943E2,3.0511978E2,1.8549715E1,8.654048E0,4.4071102E1,8.7442267E2,8.397611E1,3.884134E1,1.6477817E0,1.773192E1],"tree_param":{"num_deleted":"0","num_feature":"5","num_nodes":"99","size_leaf_vector":"0"}},{"base_weights":[-1.2898467E-1,2.1006267E-1,-3.2038695E-1,5.597855E-1,-1.9656489E-2,-7.3836744E-2,-5.041005E-1,8.639235E-1,3.2409224E-1,5.899084E-1,-1.1344677E-1,2.2942801E-1,-3.1655374E-1,3.2685286E-1,-5.978526E-1,7.447137E-1,1.5130111E0,4.3996698E-1,-6.950591E-1,2.738569E-1,1.1389621E0,-3.4079927E-1,2.734361E-1,1.7663604E-1,1.9164886E0,-1.3657984E-1,-9.4308835E-1,-1.0549061E-1,1.2891887E0,1.6412316E-1,-6.697163E-1,9.217124E-1,4.4317082E-1,8.1730515E-1,2.1390194E-1,4.4983757E-1,-1.4639634E0,6.61184E-1,-7.9523E-1,-8.5639983E-1,1.3051184E0,-9.865344E-2,-1.1541169E0,5.6266874E-1,-6.1777765E-1,-8.065099E-1,2.5907862E-1,-2.0892672E-1,7.2785892E0,-1.0522813E0,2.5283626E-1,-6.7857623E-1,9.982774E-1,4.5475006E0,1.0172576E0,5.380312E-1,-3.2770506E-1,-3.5390806E-1,-7.954456E-1,9.750678E-1,2.9782984E-1,7.269385E-1,-7.496687E-1,-9.4363E-1,8.4153587E-1,3.2799786E-1,-1.1875405E0,-9.0848014E-2,9.8255646E-1,-3.0085642E0,-1.2290813E0,1.3637911E0,3.8082546E-1,-1.2750386E0,3.042782E-1,3.614092E-1,-1.4675298E0,-9.9233913E-1,1.3865035E0,-8.401637E-1,8.4489495E-2,-1.365095E0,-1.0846461E0,3.232933E-1,1.99321E0,-8.996198E-1,9.0797454E-1,7.442746E-1,-1.4867293E0,3.132418E-1,-1.175076E0,-6.9324213E-1,1.6434209E-1,-4.979711E-2,-1.0597647E0,1.2633356E0,-9.6307963E-1,8.2596815E-1,-1.0833703E0,1.2638294E0,-8.699979E-1,1.2108127E0,-8.877042E-1,1.3527702E-1,1.6846473E0,5.364844E-1,-6.675254E-1,1.9991794E-1,-7.149418E-1,-8.9984655E-1,1.5829325E-1],"categories":[],"categories_nodes":[],"categories_segments":[],"categories_sizes":[],"default_left":[1,1,1,1,1,1,1,1,1,1,1,1,1,1,1,1,0,1,1,1,1,1,1,1,0,1,1,1,1,1,1,1,1,1,1,1,1,1,1,1,1,1,1,1,1,1,1,1,0,1,1,1,1,0,1,1,1,1,1,0,0,0,0,0,0,0,0,0,0,0,0,0,0,0,0,0,0,0,0,0,0,0,0,0,0,0,0,0,0,0,0,0,0,0,0,0,0,0,0,0,0,0,0,0,0,0,0,0,0,0,0],"id":10,"left_children":[1,3,5,7,9,11,13,15,17,19,21,23,25,27,29,31,-1,33,35,37,39,41,43,45,-1,47,49,51,53,55,57,59,61,63,65,67,69,71,73,75,77,79,81,83,85,87,89,91,-1,93,95,97,99,-1,101,103,105,107,109,-1,-1,-1,-1,-1,-1,-1,-1,-1,-1,-1,-1,-1,-1,-1,-1,-1,-1,-1,-1,-1,-1,-1,-1,-1,-1,-1,-1,-1,-1,-1,-1,-1,-1,-1,-1,-1,-1,-1,-1,-1,-1,-1,-1,-1,-1,-1,-1,-1,-1,-1,-1],"loss_changes":[2.761131E2,1.2336939E2,1.2313129E2,4.3359207E1,5.3105488E1,8.562257E1,1.21571655E2,1.9393433E1,4.0998905E1,2.1183002E1,7.088635E1,4.5730103E1,7.271265E1,6.612676E1,7.679477E1,1.1654648E1,0E0,2.6270515E1,3.19679E1,3.3624622E1,1.6016167E1,9.981137E1,7.728088E1,4.095141E1,0E0,2.71364E2,1.9068405E1,7.0489395E1,3.900564E1,2.2519472E1,5.053955E1,4.4195633E0,2.949363E1,5.7348404E0,3.1605507E1,4.425391E0,4.1066856E0,1.1146017E1,1.1842002E1,3.5505812E0,9.206329E0,5.3315533E1,2.2410583E-1,7.6696335E1,3.2468575E1,4.238721E1,3.6452072E1,9.0343895E1,0E0,9.385071E-1,1.7008589E1,4.550141E1,2.0013454E1,0E0,1.830806E1,3.1822062E1,1.5950669E1,7.337745E1,9.121625E1,0E0,0E0,0E0,0E0,0E0,0E0,0E0,0E0,0E0,0E0,0E0,0E0,0E0,0E0,0E0,0E0,0E0,0E0,0E0,0E0,0E0,0E0,0E0,0E0,0E0,0E0,0E0,0E0,0E0,0E0,0E0,0E0,0E0,0E0,0E0,0E0,0E0,0E0,0E0,0E0,0E0,0E0,0E0,0E0,0E0,0E0,0E0,0E0,0E0,0E0,0E0,0E0],"parents":[2147483647,0,0,1,1,2,2,3,3,4,4,5,5,6,6,7,7,8,8,9,9,10,10,11,11,12,12,13,13,14,14,15,15,17,17,18,18,19,19,20,20,21,21,22,22,23,23,25,25,26,26,27,27,28,28,29,29,30,30,31,31,32,32,33,33,34,34,35,35,36,36,37,37,38,38,39,39,40,40,41,41,42,42,43,43,44,44,45,45,46,46,47,47,49,49,50,50,51,51,52,52,54,54,55,55,56,56,57,57,58,58],"right_children":[2,4,6,8,10,12,14,16,18,20,22,24,26,28,30,32,-1,34,36,38,40,42,44,46,-1,48,50,52,54,56,58,60,62,64,66,68,70,72,74,76,78,80,82,84,86,88,90,92,-1,94,96,98,100,-1,102,104,106,108,110,-1,-1,-1,-1,-1,-1,-1,-1,-1,-1,-1,-1,-1,-1,-1,-1,-1,-1,-1,-1,-1,-1,-1,-1,-1,-1,-1,-1,-1,-1,-1,-1,-1,-1,-1,-1,-1,-1,-1,-1,-1,-1,-1,-1,-1,-1,-1,-1,-1,-1,-1,-1],"split_conditions":[2.4872818E1,4.008321E3,9.377606E0,2.1689227E2,1.8719351E2,2.7016132E2,1.7387003E2,3.9772744E3,3.3991199E3,1.85349E2,4.3348248E2,2.7015845E2,1.0867142E4,1.5870053E4,5.04862E5,1.6172106E0,4.5390335E-1,-1.6818428E1,-2.457484E1,9.809805E0,3.4197075E1,1.6776503E1,1.2051762E4,2.9849121E1,5.7494664E-1,1.0866773E4,1.9287405E6,1.7163081E2,1.5973517E4,2.7759668E2,3.557632E1,2.5788213E3,3.8329002E1,9.109624E2,2.8562256E3,-2.721386E1,-1.6017761E1,4.6745E3,1.469158E4,5.848305E5,6.674594E3,6.2331357E3,-5.0412607E0,2.2624275E1,8.7159143E2,2.5433496E3,2.6398022E2,3.9034744E2,2.1835768E0,1.95969E5,3.7280613E1,1.5060844E2,5.3957466E3,1.3642502E0,1.6033588E2,1.0402535E4,1.6130173E3,2.9509998E1,3.158339E1,2.9252034E-1,8.934896E-2,2.1808155E-1,-2.2490062E-1,-2.83089E-1,2.5246078E-1,9.839936E-2,-3.5626218E-1,-2.7254405E-2,2.9476696E-1,-9.025693E-1,-3.687244E-1,4.0913734E-1,1.1424764E-1,-3.825116E-1,9.128346E-2,1.0842276E-1,-4.4025895E-1,-2.9770175E-1,4.1595104E-1,-2.5204912E-1,2.534685E-2,-4.0952852E-1,-3.2539386E-1,9.698799E-2,5.9796304E-1,-2.6988596E-1,2.7239236E-1,2.232824E-1,-4.460188E-1,9.397255E-2,-3.5252282E-1,-2.0797265E-1,4.930263E-2,-1.4939134E-2,-3.1792945E-1,3.790007E-1,-2.889239E-1,2.4779046E-1,-3.250111E-1,3.791488E-1,-2.6099938E-1,3.6324382E-1,-2.6631126E-1,4.0583108E-2,5.053942E-1,1.6094533E-1,-2.0025763E-1,5.9975386E-2,-2.1448255E-1,-2.6995397E-1,4.7487978E-2],"split_indices":[3,1,4,2,2,2,2,1,1,2,2,2,1,1,0,3,0,3,3,3,4,3,1,3,0,1,0,2,1,2,3,1,4,1,1,3,3,1,1,0,1,1,4,3,2,1,2,2,0,0,3,2,1,0,2,1,1,4,4,0,0,0,0,0,0,0,0,0,0,0,0,0,0,0,0,0,0,0,0,0,0,0,0,0,0,0,0,0,0,0,0,0,0,0,0,0,0,0,0,0,0,0,0,0,0,0,0,0,0,0,0],"split_type":[0,0,0,0,0,0,0,0,0,0,0,0,0,0,0,0,0,0,0,0,0,0,0,0,0,0,0,0,0,0,0,0,0,0,0,0,0,0,0,0,0,0,0,0,0,0,0,0,0,0,0,0,0,0,0,0,0,0,0,0,0,0,0,0,0,0,0,0,0,0,0,0,0,0,0,0,0,0,0,0,0,0,0,0,0,0,0,0,0,0,0,0,0,0,0,0,0,0,0,0,0,0,0,0,0,0,0,0,0,0,0],"sum_hessian":[4.252767E3,1.5344918E3,2.7182751E3,6.07778E2,9.267138E2,1.1612448E3,1.5570305E3,2.641954E2,3.4358264E2,1.2286912E2,8.0384467E2,5.162574E2,6.449873E2,1.5760892E2,1.3994216E3,2.2501671E2,3.9178684E1,3.090166E2,3.4566044E1,7.89322E1,4.3936916E1,5.0638538E2,2.974593E2,5.016639E2,1.4593505E1,5.0200333E2,1.4298395E2,1.09365326E2,4.8243595E1,1.2049721E2,1.2789243E3,1.4049358E2,8.452313E1,1.1479323E2,1.9422337E2,1.4054254E1,2.0511791E1,5.8220592E1,2.0711609E1,3.058105E0,4.087881E1,3.910738E2,1.1531156E2,2.2485423E2,7.2605064E1,3.813329E1,4.635306E2,4.9811523E2,3.8880894E0,1.3113123E2,1.185271E1,7.224193E1,3.7123394E1,2.5050304E0,4.5738564E1,6.840157E1,5.2095634E1,3.6526434E2,9.1366003E2,1.289064E2,1.1587168E1,6.859538E1,1.5927752E1,1.043108E0,1.1375012E2,1.8030974E2,1.3913636E1,7.3866253E0,6.667628E0,1.1487432E0,1.9363047E1,1.5503296E1,4.2717297E1,1.4308119E1,6.40349E0,1.1583875E0,1.8997175E0,1.0156078E0,3.9863205E1,7.674811E1,3.1432568E2,2.3944342E1,9.136722E1,1.9367259E2,3.118164E1,6.1630795E1,1.0974274E1,1.1597895E1,2.6535397E1,4.4741486E2,1.611577E1,2.1643462E2,2.8168063E2,1.0283549E0,1.3010287E2,6.451842E0,5.4008684E0,1.5095246E1,5.7146687E1,3.278671E1,4.3366866E0,4.185068E1,3.8878822E0,5.1448154E1,1.6953423E1,1.4540159E1,3.7555477E1,1.4432144E2,2.209429E2,8.2356506E2,9.009497E1],"tree_param":{"num_deleted":"0","num_feature":"5","num_nodes":"111","size_leaf_vector":"0"}},{"base_weights":[-1.0980085E-1,4.1686565E-2,-4.381527E-1,3.9530158E-1,-9.03414E-2,-5.194815E-1,3.5306975E-1,9.054366E-1,2.910429E-1,-2.3325226E-1,1.9834873E-1,-1.5138352E-1,-7.817954E-1,-5.931825E-1,1.691525E0,9.296874E-1,-1.0527718E-1,6.849091E-1,1.5270607E-1,-4.991047E-2,-4.4527417E-1,1.1260385E-1,8.593652E-1,3.4606737E-1,-5.0832105E-1,2.8507182E-1,-8.740282E-1,6.2166196E-1,-9.8513967E-1,1.2601938E0,3.4459224E0,8.0735755E-1,1.0071527E0,6.513622E-1,-1.0612841E0,5.850365E-1,1.6202501E0,4.7100472E-1,-2.4541845E-3,-8.520011E-2,2.0869973E0,-5.095199E-1,7.8534436E-1,2.1880786E-1,-6.370368E-1,9.752621E-1,-4.3233436E-1,-1.4009464E-2,1.0660087E0,-6.829212E-1,1.5913455E0,-2.5613227E-1,1.1358281E0,-4.519717E-2,-9.4420636E-1,-1.0237252E0,1.2805399E0,-1.0333071E0,4.6670474E-2,2.6244807E-1,1.5755476E0,5.67962E0,-6.7455515E-2,8.611763E-1,-5.472445E-1,7.396168E-1,-3.0157155E-1,2.220455E-1,1.2268996E0,-1.3690944E0,5.5363793E-2,-3.4402207E-1,1.5477769E-1,-3.440066E-1,-9.9786025E-1,1.2410834E0,5.748015E-2,6.262759E-1,1.19628735E-1,-1.0461142E0,-6.791459E-2,7.1365625E-1,1.7374684E0,6.4355814E-1,-9.9870723E-1,4.7442263E-1,-7.227219E-1,9.605056E0,6.10923E-1,4.7990558E-1,-7.965923E-1,-9.0430284E-1,2.7187555E0,-1.0792255E0,1.3874922E0,1.3089453E0,1.7476217E-1,7.1680987E-1,-1.1056694E0,-9.5814204E-1,-1.2258135E-1,-8.6292154E-1,9.9476224E-1,-7.094221E-1,1.1866877E0,1.0852879E0,1.8682072E0,-7.2189885E-1,9.146588E-1],"categories":[],"categories_nodes":[],"categories_segments":[],"categories_sizes":[],"default_left":[1,1,1,1,1,1,1,1,1,1,1,1,1,1,1,1,1,1,1,1,1,1,1,1,1,1,1,1,1,1,1,1,0,0,0,1,0,1,1,1,0,1,1,1,1,1,1,1,1,1,1,1,1,1,1,0,0,0,1,1,1,0,1,0,0,0,0,0,0,0,0,0,0,0,0,0,0,0,0,0,0,0,0,0,0,0,0,0,0,0,0,0,0,0,0,0,0,0,0,0,0,0,0,0,0,0,0,0,0],"id":11,"left_children":[1,3,5,7,9,11,13,15,17,19,21,23,25,27,29,31,33,35,37,39,41,43,45,47,49,51,53,55,57,59,61,63,-1,-1,-1,65,-1,67,69,71,-1,73,75,77,79,81,83,85,87,89,91,93,95,97,99,-1,-1,-1,101,103,105,-1,107,-1,-1,-1,-1,-1,-1,-1,-1,-1,-1,-1,-1,-1,-1,-1,-1,-1,-1,-1,-1,-1,-1,-1,-1,-1,-1,-1,-1,-1,-1,-1,-1,-1,-1,-1,-1,-1,-1,-1,-1,-1,-1,-1,-1,-1,-1],"loss_changes":[1.9171846E2,1.2320352E2,7.848331E1,3.7892174E1,7.9332054E1,1.06460266E2,1.453997E2,3.0701523E0,3.2431107E1,4.996341E1,3.6000153E1,8.194625E1,6.3644623E1,3.2768677E1,3.1586197E1,3.1004333E-1,3.3964005E0,1.3524704E1,2.189001E1,5.2264717E1,4.7535088E1,4.5113213E1,1.1346416E1,5.004412E1,9.953291E1,2.4242527E1,3.4463715E1,1.9834534E1,2.6050224E0,1.2073479E1,6.938881E1,4.189022E0,0E0,0E0,0E0,1.9622314E1,0E0,2.7062077E1,2.3698252E1,4.2316994E1,0E0,4.5502045E1,9.871286E0,1.9950916E1,1.6308578E1,1.2174416E1,4.7263002E0,4.5216465E1,2.4421579E2,3.3244896E1,6.1309376E1,4.5614197E1,3.1669426E0,3.9063366E1,6.144348E0,0E0,0E0,0E0,3.6622045E0,1.0480794E1,2.270424E0,0E0,3.4920661E0,0E0,0E0,0E0,0E0,0E0,0E0,0E0,0E0,0E0,0E0,0E0,0E0,0E0,0E0,0E0,0E0,0E0,0E0,0E0,0E0,0E0,0E0,0E0,0E0,0E0,0E0,0E0,0E0,0E0,0E0,0E0,0E0,0E0,0E0,0E0,0E0,0E0,0E0,0E0,0E0,0E0,0E0,0E0,0E0,0E0,0E0],"parents":[2147483647,0,0,1,1,2,2,3,3,4,4,5,5,6,6,7,7,8,8,9,9,10,10,11,11,12,12,13,13,14,14,15,15,16,16,17,17,18,18,19,19,20,20,21,21,22,22,23,23,24,24,25,25,26,26,27,27,28,28,29,29,30,30,31,31,35,35,37,37,38,38,39,39,41,41,42,42,43,43,44,44,45,45,46,46,47,47,48,48,49,49,50,50,51,51,52,52,53,53,54,54,58,58,59,59,60,60,62,62],"right_children":[2,4,6,8,10,12,14,16,18,20,22,24,26,28,30,32,34,36,38,40,42,44,46,48,50,52,54,56,58,60,62,64,-1,-1,-1,66,-1,68,70,72,-1,74,76,78,80,82,84,86,88,90,92,94,96,98,100,-1,-1,-1,102,104,106,-1,108,-1,-1,-1,-1,-1,-1,-1,-1,-1,-1,-1,-1,-1,-1,-1,-1,-1,-1,-1,-1,-1,-1,-1,-1,-1,-1,-1,-1,-1,-1,-1,-1,-1,-1,-1,-1,-1,-1,-1,-1,-1,-1,-1,-1,-1,-1],"split_conditions":[4.1277092E1,2.9532642E3,3.0927715E1,-2.278394E1,1.4653455E6,6.7725897E0,4.439862E1,2.634284E3,-8.509787E0,3.1497247E2,4.7645325E1,2.4027441E2,1.7164139E2,1.9592329E3,3.3318124E2,6.32693E5,-3.0885067E1,2.9470835E3,2.0033066E2,3.1495245E2,8.6468567E2,3.752879E1,1.547608E4,9.927572E3,6.249381E0,1.7482898E4,1.5333042E3,1.9409856E3,1.720628E6,3.220662E1,3.3580176E2,6.11224E5,3.021458E-1,1.9540866E-1,-3.1838524E-1,2.3291548E3,4.8607504E-1,1.9959529E2,2.1059485E2,7.708836E3,6.260992E-1,1.1475495E4,8.649807E3,5.7736895E3,4.3909462E1,1.1227004E4,1.5753412E2,1.9947801E2,9.930464E3,1.7571095E3,6.823522E2,1.7163081E2,2.1099316E4,4.618268E1,1.9555035E6,-3.0711755E-1,3.8416198E-1,-3.0999213E-1,4.244226E1,2.3460973E4,1.7259799E2,1.703886E0,3.5992603E1,2.583529E-1,-1.6417335E-1,2.2188506E-1,-9.047147E-2,6.661365E-2,3.680699E-1,-4.1072834E-1,1.6609138E-2,-1.0320663E-1,4.6433307E-2,-1.03201985E-1,-2.993581E-1,3.7232503E-1,1.7244045E-2,1.8788278E-1,3.5888623E-2,-3.1383428E-1,-2.0374378E-2,2.1409689E-1,5.2124053E-1,1.9306745E-1,-2.996122E-1,1.423268E-1,-2.1681657E-1,2.881517E0,1.832769E-1,1.4397168E-1,-2.389777E-1,-2.7129087E-1,8.156267E-1,-3.2376766E-1,4.1624767E-1,3.926836E-1,5.2428655E-2,2.1504296E-1,-3.3170083E-1,-2.8744262E-1,-3.6774404E-2,-2.5887647E-1,2.9842868E-1,-2.1282664E-1,3.5600632E-1,3.2558638E-1,5.604622E-1,-2.1656966E-1,2.7439764E-1],"split_indices":[3,1,4,3,0,4,3,1,4,2,4,2,2,1,2,0,4,1,2,2,2,4,1,1,4,1,1,1,0,4,2,0,0,0,0,1,0,2,2,1,0,1,1,1,4,1,2,2,1,1,2,2,1,3,0,0,0,0,3,1,2,0,4,0,0,0,0,0,0,0,0,0,0,0,0,0,0,0,0,0,0,0,0,0,0,0,0,0,0,0,0,0,0,0,0,0,0,0,0,0,0,0,0,0,0,0,0,0,0],"split_type":[0,0,0,0,0,0,0,0,0,0,0,0,0,0,0,0,0,0,0,0,0,0,0,0,0,0,0,0,0,0,0,0,0,0,0,0,0,0,0,0,0,0,0,0,0,0,0,0,0,0,0,0,0,0,0,0,0,0,0,0,0,0,0,0,0,0,0,0,0,0,0,0,0,0,0,0,0,0,0,0,0,0,0,0,0,0,0,0,0,0,0,0,0,0,0,0,0,0,0,0,0,0,0,0,0,0,0,0,0],"sum_hessian":[3.8529546E3,2.6371567E3,1.2157977E3,7.164011E2,1.9207557E3,1.1027871E3,1.1301063E2,1.2026468E2,5.961364E2,1.2848873E3,6.3586835E2,4.5952518E2,6.432619E2,6.653147E1,4.647916E1,1.1752498E2,2.7396984E0,1.5392819E2,4.4220822E2,6.897098E2,5.9517755E2,5.6389246E2,7.197592E1,1.9198837E2,2.675368E2,5.1019756E1,5.922421E2,1.608648E1,5.044499E1,3.868619E1,7.792971E0,4.999586E1,6.752912E1,1.7071916E0,1.0325068E0,1.4054659E2,1.3381616E1,1.442518E2,2.9795645E2,6.794493E2,1.0260531E1,5.662043E2,2.89733E1,4.9453778E2,6.935465E1,6.627447E1,5.701455E0,1.286333E2,6.335508E1,2.4762039E2,1.9916407E1,3.1610098E1,1.9409658E1,4.635974E1,5.458824E2,4.441407E0,1.1645072E1,4.8193737E1,2.251251E0,9.730898E0,2.8955294E1,4.3871727E0,3.4057984E0,4.8435753E1,1.5601078E0,1.1982147E2,2.072511E1,1.0948568E2,3.4766113E1,1.1173345E1,2.8678308E2,3.2668158E2,3.527677E2,4.2415112E2,1.4205316E2,1.7383705E1,1.1589596E1,9.576829E1,3.987695E2,3.986331E1,2.9491339E1,5.078146E1,1.5493005E1,1.9192783E0,3.7821767E0,7.6346924E1,5.228637E1,2.1883175E0,6.116676E1,2.1763496E1,2.258569E2,6.2590933E0,1.3657313E1,2.129126E1,1.0318838E1,1.6140326E1,3.269334E0,2.716458E1,1.9195162E1,5.366146E2,9.267749E0,1.1948012E0,1.0564498E0,4.856522E0,4.874376E0,1.2583663E1,1.637163E1,2.2028549E0,1.2029437E0],"tree_param":{"num_deleted":"0","num_feature":"5","num_nodes":"109","size_leaf_vector":"0"}},{"base_weights":[-9.18641E-2,6.2014636E-2,-3.4336892E-1,6.005872E-1,-9.887573E-3,1.380543E-1,-4.669686E-1,8.7704E-1,4.3218753E-1,5.036016E-1,-7.037256E-2,5.4632224E-2,1.6907607E0,-3.627695E-2,-6.036518E-1,7.0209235E-1,9.89992E-1,1.0319568E0,3.286642E-1,8.0605763E-1,3.622707E-1,5.3877532E-2,-3.084194E-1,-1.2987748E-1,7.6925313E-1,-1.3577524E-1,1.8510586E0,-3.4466535E-1,4.8682252E-1,-1.2249379E-1,-7.197277E-1,7.6270324E-1,-4.0677026E-1,1.0065821E0,3.7761625E-2,-1.1349259E-1,6.4359325E-1,5.2812576E-1,8.673009E-1,7.7898455E-1,2.2422835E-1,7.508595E-1,9.225201E-3,-5.960369E-1,9.832412E-2,1.1331564E-1,-9.4628894E-1,-5.6244123E-1,1.9511422E0,2.034955E0,7.2596055E-1,-6.4582515E-1,6.0646886E-1,1.0894378E1,1.7765136E-1,2.3811463E-1,-6.209339E-1,-7.811623E-1,4.372477E-1,8.6852527E-1,1.1368967E-1,5.0981504E-1,-1.6628222E0,1.6942628E-1,8.332402E-1,6.4222497E-1,-4.7965902E-1,9.645184E-1,6.456209E-1,-3.1290256E-4,8.4634227E-1,1.7601732E-2,6.3299215E-1,8.029197E-1,-1.0533799E0,-8.2159385E-2,4.0046483E-1,-2.736767E-1,-1.0968292E0,2.3206581E-1,-9.599982E-1,6.925705E-1,-6.53488E-2,1.2968013E-1,-1.062104E0,-8.476369E-1,2.13438E0,3.328366E0,-2.153834E-1,8.701842E-2,-9.675048E-1,9.719043E-1,-9.8217314E-1,6.245802E-1,-1.0210649E0,6.0092556E-1,-1.6131252E-1,-8.273676E-1,4.8677698E-1,-8.1084347E-1,1.3654866E0,1.9327409E0,-6.9916624E-1],"categories":[],"categories_nodes":[],"categories_segments":[],"categories_sizes":[],"default_left":[1,1,1,1,1,1,1,1,1,1,1,1,1,1,1,1,1,0,1,1,1,1,1,1,1,0,1,1,1,1,1,1,0,0,0,1,1,1,1,1,1,1,1,1,1,1,1,1,1,0,0,1,1,0,1,1,1,1,1,0,0,0,0,0,0,0,0,0,0,0,0,0,0,0,0,0,0,0,0,0,0,0,0,0,0,0,0,0,0,0,0,0,0,0,0,0,0,0,0,0,0,0,0],"id":12,"left_children":[1,3,5,7,9,11,13,15,17,19,21,23,25,27,29,31,33,-1,35,37,39,41,43,45,47,-1,49,51,53,55,57,59,-1,-1,-1,61,63,65,67,69,71,73,75,77,79,81,83,85,87,-1,-1,89,91,-1,93,95,97,99,101,-1,-1,-1,-1,-1,-1,-1,-1,-1,-1,-1,-1,-1,-1,-1,-1,-1,-1,-1,-1,-1,-1,-1,-1,-1,-1,-1,-1,-1,-1,-1,-1,-1,-1,-1,-1,-1,-1,-1,-1,-1,-1,-1,-1],"loss_changes":[1.3691888E2,8.5022804E1,7.997006E1,1.1659737E1,6.022131E1,3.5541977E1,6.2894318E1,1.2201385E0,9.761339E0,8.442345E0,5.1318527E1,3.4660492E1,4.348488E0,4.187385E1,4.5219604E1,3.0969696E0,8.538742E-1,0E0,1.9595177E1,6.3568115E-1,7.9404945E0,3.5487663E1,6.9665276E1,4.1638893E1,8.598193E1,0E0,1.1985321E0,4.7148453E1,3.07935E2,2.8703775E1,4.6780975E1,2.6252651E0,0E0,0E0,0E0,5.7987328E1,7.2351723E0,1.9362087E0,4.7847748E-1,1.8217201E0,9.05784E0,7.2944717E0,3.8390728E1,5.598912E1,3.5228554E1,1.681753E1,6.133671E0,2.1910292E1,8.664092E1,0E0,0E0,2.9424805E1,2.4043388E1,0E0,5.1286507E1,1.3560274E1,1.5716219E1,4.0659668E1,5.842832E1,0E0,0E0,0E0,0E0,0E0,0E0,0E0,0E0,0E0,0E0,0E0,0E0,0E0,0E0,0E0,0E0,0E0,0E0,0E0,0E0,0E0,0E0,0E0,0E0,0E0,0E0,0E0,0E0,0E0,0E0,0E0,0E0,0E0,0E0,0E0,0E0,0E0,0E0,0E0,0E0,0E0,0E0,0E0,0E0],"parents":[2147483647,0,0,1,1,2,2,3,3,4,4,5,5,6,6,7,7,8,8,9,9,10,10,11,11,12,12,13,13,14,14,15,15,16,16,18,18,19,19,20,20,21,21,22,22,23,23,24,24,26,26,27,27,28,28,29,29,30,30,31,31,35,35,36,36,37,37,38,38,39,39,40,40,41,41,42,42,43,43,44,44,45,45,46,46,47,47,48,48,51,51,52,52,54,54,55,55,56,56,57,57,58,58],"right_children":[2,4,6,8,10,12,14,16,18,20,22,24,26,28,30,32,34,-1,36,38,40,42,44,46,48,-1,50,52,54,56,58,60,-1,-1,-1,62,64,66,68,70,72,74,76,78,80,82,84,86,88,-1,-1,90,92,-1,94,96,98,100,102,-1,-1,-1,-1,-1,-1,-1,-1,-1,-1,-1,-1,-1,-1,-1,-1,-1,-1,-1,-1,-1,-1,-1,-1,-1,-1,-1,-1,-1,-1,-1,-1,-1,-1,-1,-1,-1,-1,-1,-1,-1,-1,-1,-1],"split_conditions":[3.7128876E1,-2.5394207E1,-5.38046E0,3.180475E3,1.6495559E3,5.4964233E1,1.9965121E2,6.32693E5,-5.2964287E1,1.0810493E1,3.0836306E1,-8.085014E0,4.39158E5,1.90249E2,2.910513E3,6.11224E5,2.029525E6,3.0958706E-1,-2.9989986E1,-1.6202164E1,-5.235627E0,-4.406964E1,4.557053E1,-1.3493469E1,1.0289719E4,-4.0732574E-2,1.1386957E4,1.7552258E4,1.9025992E2,7.809605E5,6.906615E2,2.3937622E3,-1.22031085E-1,3.0197465E-1,1.1328488E-2,6.838915E0,3.1863085E1,-1.6645943E1,4.2990807E1,1.11948E5,1.4937208E3,1.8696332E4,2.1027819E1,2.9545044E2,1.3916179E4,2.0435237E2,3.8030865E1,7.042031E2,1.2309654E4,6.104865E-1,2.1778817E-1,1.625416E3,1.6033588E2,3.2683134E0,3.7988022E3,1.6288252E3,3.1506481E1,3.83748E1,6.9084155E2,2.605576E-1,3.4106903E-2,1.5294452E-1,-4.9884668E-1,5.0827887E-2,2.4997208E-1,1.926675E-1,-1.4389771E-1,2.8935555E-1,1.9368628E-1,-9.3870774E-5,2.539027E-1,5.28052E-3,1.8989766E-1,2.4087591E-1,-3.16014E-1,-2.4647817E-2,1.2013946E-1,-8.2103014E-2,-3.2904875E-1,6.9619745E-2,-2.8799948E-1,2.0777117E-1,-1.960464E-2,3.890404E-2,-3.186312E-1,-2.542911E-1,6.4031404E-1,9.985098E-1,-6.461502E-2,2.6105529E-2,-2.9025146E-1,2.915713E-1,-2.9465196E-1,1.8737407E-1,-3.0631948E-1,1.8027768E-1,-4.839376E-2,-2.482103E-1,1.460331E-1,-2.4325305E-1,4.09646E-1,5.798223E-1,-2.0974988E-1],"split_indices":[3,3,4,1,1,3,2,0,3,3,4,4,0,2,1,0,0,0,3,3,4,4,4,4,1,0,1,1,2,0,2,1,0,0,0,4,4,3,4,0,1,1,4,2,1,2,3,2,1,0,0,1,2,0,1,1,4,4,2,0,0,0,0,0,0,0,0,0,0,0,0,0,0,0,0,0,0,0,0,0,0,0,0,0,0,0,0,0,0,0,0,0,0,0,0,0,0,0,0,0,0,0,0],"split_type":[0,0,0,0,0,0,0,0,0,0,0,0,0,0,0,0,0,0,0,0,0,0,0,0,0,0,0,0,0,0,0,0,0,0,0,0,0,0,0,0,0,0,0,0,0,0,0,0,0,0,0,0,0,0,0,0,0,0,0,0,0,0,0,0,0,0,0,0,0,0,0,0,0,0,0,0,0,0,0,0,0,0,0,0,0,0,0,0,0,0,0,0,0,0,0,0,0,0,0,0,0,0,0],"sum_hessian":[3.5362915E3,2.194425E3,1.3418665E3,2.5759512E2,1.93683E3,2.7410504E2,1.0677615E3,9.5920105E1,1.6167502E2,2.0332973E2,1.7335002E3,2.611115E2,1.2993521E1,2.575335E2,8.1022797E2,4.0463444E1,5.545666E1,2.2478127E1,1.3919688E2,6.32557E1,1.4007402E2,1.1395029E3,5.9399725E2,2.0817941E2,5.293209E1,1.0606608E0,1.193286E1,1.6223216E2,9.5301346E1,1.57872E2,6.5235596E2,3.866232E1,1.8011239E0,5.4450916E1,1.0057424E0,5.8168537E1,8.102835E1,1.3159452E1,5.009625E1,3.369986E1,1.0637416E2,6.765498E1,1.071848E3,3.4767972E2,2.4631752E2,1.6106306E2,4.7116356E1,2.5135155E1,2.7796938E1,9.56137E0,2.3714902E0,1.2346132E2,3.8770847E1,1.7616593E0,9.353969E1,9.1904076E1,6.596792E1,6.1977136E2,3.2584606E1,3.2951355E1,5.7109613E0,4.195903E1,1.6209507E1,2.3690157E1,5.7338196E1,1.2146938E1,1.0125145E0,3.2494766E1,1.760148E1,2.7602625E0,3.0939596E1,7.135027E1,3.502389E1,6.629701E1,1.3579768E0,8.6953467E2,2.0231331E2,2.1246342E2,1.352163E2,2.1937544E2,2.6942064E1,3.7289375E1,1.2377369E2,4.567031E0,4.2549324E1,2.3351377E1,1.7837763E0,1.6666227E1,1.1130711E1,3.788409E1,8.557723E1,3.183586E1,6.934988E0,6.84848E1,2.5054886E1,4.789512E1,4.4008953E1,5.581861E1,1.0149309E1,6.119326E2,7.838755E0,1.3766928E1,1.8817678E1],"tree_param":{"num_deleted":"0","num_feature":"5","num_nodes":"103","size_leaf_vector":"0"}},{"base_weights":[-7.683476E-2,2.564066E-2,-3.5214007E-1,5.274994E-1,-2.5341006E-2,-4.2914093E-1,3.6531374E-1,8.644233E-1,3.7705907E-1,3.0378526E-2,-3.913251E-1,-1.3816728E-1,-6.865946E-1,-5.150185E-1,1.3370261E0,6.9282675E-1,9.848916E-1,-1.1702488E-1,5.038273E-1,9.4794476E-4,1.2601863E0,-1.0905186E-2,-8.5943353E-1,1.8184043E-1,-4.0932608E-1,2.708871E-1,-7.767586E-1,5.194515E-1,-9.476755E-1,1.8388787E-1,1.5745153E0,7.9921025E-1,-1.5338434E-1,-5.625629E-1,5.1040536E-1,1.0073782E0,4.0192947E-1,4.894598E-1,-4.982375E-2,-8.7766325E-1,1.7939414E0,4.415073E-1,-6.0795677E-1,8.3633953E-1,-1.1042047E0,4.9047314E-2,1.1449238E0,-6.817804E-1,5.357796E-1,-4.2413953E-1,7.312027E-1,-9.183739E-2,-8.625258E-1,-9.418037E-1,1.1386322E0,-1.010825E0,1.086163E-1,9.6217245E-1,-5.858517E-1,1.2521152E0,2.1842742E0,8.884377E-1,1.3729191E-1,5.757294E-1,-6.6963834E-1,1.7103639E-1,-2.0718935E0,9.3049365E-1,-3.046348E-1,6.3965227E-3,6.518125E-1,6.377475E-1,-5.849193E-1,2.2957988E-1,-1.5375619E-1,3.2225138E-1,-1.0858961E0,1.9265192E0,-6.370979E-1,-2.0025712E-1,1.1427987E0,-1.1575817E0,4.3414345E-1,1.2081907E0,-8.730307E-1,-3.288607E-1,-1.1139331E0,1.6841243E-1,-1.1738954E0,-9.254535E-1,1.5261451E0,1.547886E0,-7.88494E-1,9.1700035E-1,-9.654616E-1,5.547095E-1,-1.0441535E0,-8.0938107E-1,9.5529467E-1,-6.7110276E-1,1.0191334E0,-9.210685E-1,-3.6845693E-1,-7.898751E-1,8.7001E-2,1.0318751E-2,1.3196619E0,2.925159E-1,2.3964832E0],"categories":[],"categories_nodes":[],"categories_segments":[],"categories_sizes":[],"default_left":[1,1,1,1,1,1,1,1,1,1,1,1,1,1,1,1,0,1,1,1,1,1,1,1,1,1,1,1,1,1,1,1,1,1,1,0,1,1,1,1,1,1,1,1,1,1,1,1,1,1,1,1,1,0,0,0,0,0,1,1,1,0,0,0,0,0,0,0,0,0,0,0,0,0,0,0,0,0,0,0,0,0,0,0,0,0,0,0,0,0,0,0,0,0,0,0,0,0,0,0,0,0,0,0,0,0,0,0,0],"id":13,"left_children":[1,3,5,7,9,11,13,15,17,19,21,23,25,27,29,31,-1,33,35,37,39,41,43,45,47,49,51,53,55,57,59,61,63,65,67,-1,69,71,73,75,77,79,81,83,85,87,89,91,93,95,97,99,101,-1,-1,-1,-1,-1,103,105,107,-1,-1,-1,-1,-1,-1,-1,-1,-1,-1,-1,-1,-1,-1,-1,-1,-1,-1,-1,-1,-1,-1,-1,-1,-1,-1,-1,-1,-1,-1,-1,-1,-1,-1,-1,-1,-1,-1,-1,-1,-1,-1,-1,-1,-1,-1,-1,-1],"loss_changes":[9.192976E1,6.078767E1,4.898625E1,1.0779247E1,4.4003307E1,5.973529E1,7.44337E1,6.996956E-1,9.656834E0,6.7794876E1,5.0761883E1,3.271662E1,3.677054E1,2.1059399E1,1.1008591E1,2.9086628E0,0E0,9.260528E0,5.8620396E0,4.5421894E1,5.1528557E1,4.3026913E1,5.397397E1,2.2099659E1,5.287932E1,1.2207911E1,2.2672363E1,1.3917961E1,2.294716E0,5.462801E0,3.9642334E0,1.5112648E0,2.0022933E0,2.166504E1,5.0267477E0,0E0,1.0200256E1,2.7841545E1,4.820944E1,2.7030606E0,1.2623924E1,4.1021233E1,3.9829323E1,1.1663629E1,4.7937012E-1,2.2574818E1,1.7945768E1,3.8991318E1,2.7323298E1,9.955604E0,8.62338E0,2.9142004E1,9.612869E0,0E0,0E0,0E0,0E0,0E0,7.184557E-1,2.052719E0,3.4913063E0,0E0,0E0,0E0,0E0,0E0,0E0,0E0,0E0,0E0,0E0,0E0,0E0,0E0,0E0,0E0,0E0,0E0,0E0,0E0,0E0,0E0,0E0,0E0,0E0,0E0,0E0,0E0,0E0,0E0,0E0,0E0,0E0,0E0,0E0,0E0,0E0,0E0,0E0,0E0,0E0,0E0,0E0,0E0,0E0,0E0,0E0,0E0,0E0],"parents":[2147483647,0,0,1,1,2,2,3,3,4,4,5,5,6,6,7,7,8,8,9,9,10,10,11,11,12,12,13,13,14,14,15,15,17,17,18,18,19,19,20,20,21,21,22,22,23,23,24,24,25,25,26,26,27,27,28,28,29,29,30,30,31,31,32,32,33,33,34,34,36,36,37,37,38,38,39,39,40,40,41,41,42,42,43,43,44,44,45,45,46,46,47,47,48,48,49,49,50,50,51,51,52,52,58,58,59,59,60,60],"right_children":[2,4,6,8,10,12,14,16,18,20,22,24,26,28,30,32,-1,34,36,38,40,42,44,46,48,50,52,54,56,58,60,62,64,66,68,-1,70,72,74,76,78,80,82,84,86,88,90,92,94,96,98,100,102,-1,-1,-1,-1,-1,104,106,108,-1,-1,-1,-1,-1,-1,-1,-1,-1,-1,-1,-1,-1,-1,-1,-1,-1,-1,-1,-1,-1,-1,-1,-1,-1,-1,-1,-1,-1,-1,-1,-1,-1,-1,-1,-1,-1,-1,-1,-1,-1,-1,-1,-1,-1,-1,-1,-1],"split_conditions":[4.1223778E1,-2.5394207E1,3.0927715E1,2.634284E3,1.4674166E4,6.649893E0,4.439862E1,6.32693E5,7.383715E5,1.4173389E4,1.810539E1,2.4027441E2,1.7164139E2,1.9592329E3,3.1591648E1,3.561805E1,2.954675E-1,3.0160883E1,-5.0387844E1,-3.191165E1,3.2837074E1,2.9676855E2,1.7523988E2,2.3509949E2,5.7979877E2,4.7144104E1,1.5333042E3,1.9409856E3,1.720628E6,1.4889572E2,3.3147055E2,2.2426694E3,-3.489086E1,5.034977E0,5.724018E3,3.022135E-1,-3.0215925E1,4.5973517E2,2.1632033E2,-1.5493417E1,3.6977287E1,2.7621576E2,6.972402E2,3.0112465E1,1.8603695E1,2.235174E2,5.054407E1,-3.4688484E1,1.0036193E4,1.5333331E2,1.9481014E1,1.4555547E3,1.6670285E6,-2.8254113E-1,3.4158966E-1,-3.032475E-1,3.258489E-2,2.8865173E-1,4.569011E1,3.2474495E1,1.462561E6,2.6653132E-1,4.1187573E-2,1.7271884E-1,-2.0089151E-1,5.131092E-2,-6.215681E-1,2.791481E-1,-9.1390446E-2,1.9189569E-3,1.9554375E-1,1.9132426E-1,-1.7547579E-1,6.8873964E-2,-4.6126857E-2,9.667542E-2,-3.2576886E-1,5.779558E-1,-1.9112937E-1,-6.007714E-2,3.428396E-1,-3.472745E-1,1.3024305E-1,3.6245722E-1,-2.6190922E-1,-9.865821E-2,-3.3417994E-1,5.052373E-2,-3.5216862E-1,-2.7763605E-1,4.5784354E-1,4.643658E-1,-2.365482E-1,2.751001E-1,-2.896385E-1,1.6641286E-1,-3.1324604E-1,-2.4281433E-1,2.865884E-1,-2.0133084E-1,3.0574006E-1,-2.7632055E-1,-1.1053708E-1,-2.3696254E-1,2.6100302E-2,3.0956257E-3,3.9589858E-1,8.775477E-2,7.1894497E-1],"split_indices":[3,3,4,1,1,4,3,0,0,1,4,2,2,1,4,4,0,4,3,4,3,2,2,2,2,3,1,1,0,2,2,1,3,4,1,0,3,2,2,3,3,2,2,3,4,2,3,4,1,2,4,1,0,0,0,0,0,0,3,4,0,0,0,0,0,0,0,0,0,0,0,0,0,0,0,0,0,0,0,0,0,0,0,0,0,0,0,0,0,0,0,0,0,0,0,0,0,0,0,0,0,0,0,0,0,0,0,0,0],"split_type":[0,0,0,0,0,0,0,0,0,0,0,0,0,0,0,0,0,0,0,0,0,0,0,0,0,0,0,0,0,0,0,0,0,0,0,0,0,0,0,0,0,0,0,0,0,0,0,0,0,0,0,0,0,0,0,0,0,0,0,0,0,0,0,0,0,0,0,0,0,0,0,0,0,0,0,0,0,0,0,0,0,0,0,0,0,0,0,0,0,0,0,0,0,0,0,0,0,0,0,0,0,0,0,0,0,0,0,0,0],"sum_hessian":[3.257211E3,2.3743328E3,8.828783E2,2.1809354E2,2.1562393E3,7.9767004E2,8.5208244E1,6.585646E1,1.5223708E2,1.872132E3,2.841072E2,3.751795E2,4.2249054E2,4.4952805E1,4.0255436E1,2.9948532E1,3.5907932E1,3.1100101E1,1.2113698E2,1.8293544E3,4.2777584E1,1.572982E2,1.2680899E2,1.7224004E2,2.0293947E2,3.6188503E1,3.8630203E2,1.319746E1,3.1755342E1,7.177772E0,3.3077663E1,2.665329E1,3.295242E0,1.824659E1,1.2853511E1,1.889196E1,1.0224502E2,1.7141397E2,1.6579404E3,8.417729E0,3.4359856E1,8.963688E1,6.766132E1,1.5690243E1,1.11118744E2,1.5229239E2,1.994765E1,1.5774382E2,4.519565E1,1.4449665E1,2.1738838E1,4.3220642E1,3.430814E2,3.7727623E0,9.424698E0,3.000459E1,1.750754E0,3.444767E0,3.733005E0,2.3634676E1,9.442989E0,2.3185621E1,3.4676683E0,1.3182502E0,1.9769918E0,1.2875317E1,5.371274E0,8.388338E0,4.4651732E0,3.9982857E1,6.226216E1,1.5098163E2,2.043235E1,4.4918323E2,1.2087572E3,1.163819E0,7.25391E0,3.277973E1,1.5801243E0,4.7177937E1,4.245894E1,4.422522E1,2.3436104E1,1.3127682E1,2.5625608E0,1.8082429E0,1.093105E2,1.3953535E2,1.2757036E1,2.8798506E0,1.70678E1,6.5880713E0,1.5115575E2,3.6353355E1,8.842291E0,5.644197E0,8.805468E0,2.4288936E0,1.9309944E1,2.8668621E1,1.455202E1,3.059633E2,3.7118114E1,2.7309906E0,1.0020144E0,1.2787392E0,2.2355936E1,1.192324E0,8.250666E0],"tree_param":{"num_deleted":"0","num_feature":"5","num_nodes":"109","size_leaf_vector":"0"}},{"base_weights":[-6.2284913E-2,-1.4609186E-1,1.8565604E-1,1.2380656E-1,-2.6065204E-1,4.6008888E-1,7.7437766E-2,5.166689E-1,1.4210131E-2,-6.979139E-2,-4.1889217E-1,7.045111E-1,